{"learner":{"attributes":{"scikit_learn":"{\"_estimator_type\": \"classifier\"}"},"feature_names":["Database_ID","UMD_ID","COSMIC_ID_x","ATCC","SNP_ID_x","HG19_Start_x","HG19_End_x","HG18_Start_x","HG18_End_x","HG38_Start","HG38_End","NG_017013.2","HG19_Variant_x","HG18_Variant_x","HG38_Variant_x","NG_017013.2_Variant_x","Start_cDNA_x","End_cDNA_x","Exon:intron_start","Exon:intron_End_x","Genome_base_coding_x","cDNA_variant_x","Codon_x","WT_AA_1","WT_AA_3","Mutant_AA_1","Mutant_AA_3","Structure_x","Domain_x","PTM_x","Base_Change_Size_x","Ins_Size_x","Del_Size_x","Mutant_Allele_x","Wt_Codon","Mutant_Codon_x","Mutational_event_x","Type","Mutation_Type_x","CpG_x","Py_Py_Doublets","Tandem_Class_x","Variant Comment","Variant_Type_x","Mutation_origin","Disease","Sample_pathology","Sample_origin","Name","Hereditary_syndrome","Genetic_Background","Internal","Solid","Smoking","Aflatoxin","Radiations","Drinking","Asbestos","Hepatitis_B","Papilloma","Exposure","Complexity","Unidentified_Mutations","Records_Number_x","Leukemia_Stat","Solid_Stat","Tumor_Stat","Cell_line_Stat","Somatic_Stat","Germline_Stat","Tumor_Repetition","Publication_Repetition","Comment prediction","Comment frequency","Comment outliers","Comment activity","Comment splicing","Sift Score","Sift Prediction","Provean_Score_x","Provean_prediction_x","Mutassessor_score_x","Mutassessor_prediction:","Polyphen","Condel_x","MutPred_Splice_General_Score_x","Prediction_Label","Confident__Hypotheses","Transcript t1","Transcript t2","Transcript t3","Transcript t4","Transcript t5","Transcript t6","Transcript t7","Transcript t8","Protein p1 _TP53","Protein p3 _TP53_beta","Protein p4 _TP53_gamma","Protein p8 _Delta_40_TP53","Protein p9 _Delta_40_TP53_beta","Protein p10 _Delta_40_TP53_gamma","Protein p5 _Delta_133_TP53_alpha","Protein p6 _Delta_133_TP53_beta","Protein p7 _Delta_133_TP53_gamma","Protein p11 _Delta_160_TP53_alpha","Protein p12 _Delta_160_TP53_beta","Protein p13 _Delta_160_TP53_gamma","WAF1_","MDM2_","BAX_","__14_3_3_s","AIP_","GADD45_","NOXA_","p53R2_","ReferenceID","Authors","Year","Title","Journal","Volume","Pages","Medline","Act_outliers","PCA_outliers","PCA_Score","Comment_7_Sequence_x","Comment_8_publication","Comment_9_SNP","Comments","Pathogenicity_x","cDNA_variant_y","COSMIC_ID_y","SNP_ID_y","HG19_Variant_y","HG18_Variant_y","HG38_Variant_y","NG_017013.2_Variant_y","Transcript t1 MN_000546.5","Transcript t2 NM_001126112.2","Transcript t3 NM_001126114.2","Transcript t4 NM_001126113.2","Transcript t5 NM_001126115.1","Transcript t6 NM_001126116.1","Transcript t7 NM_001126117.1","Transcript t8 NM_001126118.1","Transcript t1 LRG_321","Transcript t2 LRG_321","Transcript t3 LRG_321","Transcript t4 LRG_321","Transcript t5 LRG_321","Transcript t6 LRG_321","Transcript t7 LRG_321","Transcript t8 LRG_321","Protein P1 TP53_alpha  NP_000537.3","Protein P3 TP53_beta NP_001119586.1","Protein P4 TP53_gamma NP_001119585.1","Protein P8 Delta40_TP53_alpha NP_001119590.1","Protein P9 Delta 40_TP53_beta NP_001263625.1","Protein P10 Delta 40_TP53_gamma NP_001263624.1","Protein P5 Delta 133_TP53_alpha NP_001119587.1","Protein P6 Delta 133_TP53_beta NP_001119588.1","Protein P7 Delta 133_TP53_gamma NP_001119589.1","Protein P11 Delta160_TP53_alpha NP_001263626.1","Protein P12 Delta160_TP53_beta NP_001263627.1","Protein P13 Delta160_TP53_gamma NP_001263628.1","Protein P1 TP53_alpha","Protein P3 TP53_beta","Protein P4 TP53_gamma","Protein P8 Delta40_TP53_alpha","Protein P9 Delta 40_TP53_beta","Protein P10 Delta 40_TP53_gamma","Protein P5 Delta 133_TP53_alpha","Protein P6 Delta 133_TP53_beta","Protein P7 Delta 133_TP53_gamma","Protein P11 Delta160_TP53_alpha","Protein P12 Delta160_TP53_beta","Protein P13 Delta160_TP53_gamma","HG19_Start_y","HG19_End_y","HG18_Start_y","HG18_End_y","Exon:intron_Start","Exon:intron_End_y","Start_cDNA_y","End_cDNA_y","Genome_base_coding_y","Mutant_Allele_y","Base_Change_Size_y","Ins_Size_y","Del_Size_y","Codon_y","WT_Codon","Mutant_Codon_y","WT AA_1","WT AA_3","Mutant AA_1","Mutant AA_3","Substitution type","CpG_y","Mutational_event_y","Tandem_Class_y","Variant_Classification_y","Variant_Type_y","Mutation_Type_y","Variant_Comment","Domain_y","Structure_y","PTM_y","Records_Number_y","Leukemia_Lymhoma_Freq","Solid_Tumor_Freq","Tumor_Freq","Cell_line_Freq","Somatic_Freq 2","Germline_Freq 2","WAF1_Act","MDM2_Act","BAX_Act","_14_3_3_s_Act","AIP_Act","GADD45_Act","NOXA_Act","p53R2_Act","WAF1_percent","MDM2_percent","BAX_percent","14_3_3_s_percent","AIP_percent","GADD45_percent","NOXA_percent","p53R2_percent","Sift_Prediction","Sift_Score","Polyphen-2_HumVar","Polyphen-2_HumDiv","Mutassessor_prediction","Mutassessor_score_y","Provean_prediction_y","Provean_Score_y","Condel_y","Condel_Score","MutPred_Splice_General_Score_y","MutPred_Splice_Prediction_Label","MutPred_Splice_Confident_Hypotheses","Comment_1_Frequency","Comment_2_Activity","Comment_3_Isoforms","Comment_4 prediction","Comment_5_Outliers","Comment_6_Splicing","Comment_7_Sequence_y","Comment_10_population","Pathogenicity_y","Final comment","target"],"feature_types":["int","int","int","int","int","int","int","int","int","int","int","int","int","int","int","int","int","int","int","int","int","int","int","int","int","int","int","int","int","int","int","int","int","int","int","int","int","int","int","int","int","int","int","int","int","int","int","int","int","int","int","int","int","int","int","int","int","int","int","int","int","int","int","int","float","float","float","float","float","float","int","int","int","int","int","int","int","int","int","int","int","int","int","int","int","int","int","int","int","int","int","int","int","int","int","int","int","int","int","int","int","int","int","int","int","int","int","int","int","int","int","int","int","int","int","int","int","int","int","int","int","int","int","int","int","int","float","int","int","int","int","int","int","int","int","int","int","int","int","int","int","int","int","int","int","int","int","int","int","int","int","int","int","int","int","int","int","int","int","int","int","int","int","int","int","int","int","int","int","int","int","int","int","int","int","int","int","int","int","int","int","int","int","int","int","int","int","int","int","int","int","int","int","int","int","int","int","int","int","int","int","int","int","int","int","int","int","int","int","int","int","float","float","float","float","float","float","int","int","int","int","int","int","int","int","int","int","int","int","int","int","int","int","int","int","int","int","int","int","int","int","int","int","int","int","int","int","int","int","int","int","int","int","int","int","int","int"],"gradient_booster":{"model":{"gbtree_model_param":{"num_parallel_tree":"1","num_trees":"100"},"iteration_indptr":[0,1,2,3,4,5,6,7,8,9,10,11,12,13,14,15,16,17,18,19,20,21,22,23,24,25,26,27,28,29,30,31,32,33,34,35,36,37,38,39,40,41,42,43,44,45,46,47,48,49,50,51,52,53,54,55,56,57,58,59,60,61,62,63,64,65,66,67,68,69,70,71,72,73,74,75,76,77,78,79,80,81,82,83,84,85,86,87,88,89,90,91,92,93,94,95,96,97,98,99,100],"tree_info":[0,0,0,0,0,0,0,0,0,0,0,0,0,0,0,0,0,0,0,0,0,0,0,0,0,0,0,0,0,0,0,0,0,0,0,0,0,0,0,0,0,0,0,0,0,0,0,0,0,0,0,0,0,0,0,0,0,0,0,0,0,0,0,0,0,0,0,0,0,0,0,0,0,0,0,0,0,0,0,0,0,0,0,0,0,0,0,0,0,0,0,0,0,0,0,0,0,0,0,0],"trees":[{"base_weights":[8.8092655E-1,1.0957999E0,-2.2427933E0,1.1477354E0,-6.90692E0,1.1521859E0,-1.6748369E0,-2.1518695E0,9.896795E-2,5.414151E-1,3.4573913E-1,2.6193082E-1,-1.1814216E-1],"categories":[],"categories_nodes":[],"categories_segments":[],"categories_sizes":[],"default_left":[0,0,0,0,0,0,0,0,0,0,0,0,0],"id":0,"left_children":[1,3,-1,5,7,9,-1,-1,-1,11,-1,-1,-1],"loss_changes":[1.3331818E4,3.0148525E3,0E0,2.2177441E2,9.243115E1,5.957031E-1,0E0,0E0,0E0,1.9420971E0,0E0,0E0,0E0],"parents":[2147483647,0,0,1,1,3,3,4,4,5,5,9,9],"right_children":[2,4,-1,6,8,10,-1,-1,-1,12,-1,-1,-1],"split_conditions":[3.96E2,1.8E1,-2.2427933E0,4.07E2,1.5E1,2.7E1,-1.6748369E0,-2.1518695E0,9.896795E-2,1.24E3,3.4573913E-1,2.6193082E-1,-1.1814216E-1],"split_indices":[77,75,0,22,42,96,0,0,0,1,0,0,0],"split_type":[0,0,0,0,0,0,0,0,0,0,0,0,0],"sum_hessian":[7.4188384E3,7.233714E3,1.8512494E2,7.1879224E3,4.5791027E1,7.184001E3,3.9216497E0,4.417623E1,1.614797E0,4.152335E0,7.1798486E3,3.1142514E0,1.0380838E0],"tree_param":{"num_deleted":"0","num_feature":"257","num_nodes":"13","size_leaf_vector":"1"}},{"base_weights":[8.7789726E-1,1.0556169E0,-5.062311E-1,1.1022495E0,-1.621757E0,-5.9773606E-1,1.106789E0,-1.6548467E0,8.502115E-2,-7.5245017E-1,3.323893E-1,-1.7160082E0,-3.86951E-1,-5.213524E-1,-7.11706E-2,-3.1747574E-1,2.1893544E-1],"categories":[],"categories_nodes":[],"categories_segments":[],"categories_sizes":[],"default_left":[0,0,0,0,0,0,0,0,0,0,0,0,0,0,0,0,0],"id":1,"left_children":[1,3,-1,5,7,-1,9,11,-1,-1,-1,13,15,-1,-1,-1,-1],"loss_changes":[2.7359321E3,7.021128E2,0E0,7.966504E1,6.547989E0,0E0,2.617334E1,6.6974487E0,0E0,0E0,0E0,2.5021973E0,5.01517E0,0E0,0E0,0E0,0E0],"parents":[2147483647,0,0,1,1,3,3,4,4,6,6,7,7,11,11,12,12],"right_children":[2,4,-1,6,8,-1,10,12,-1,-1,-1,14,16,-1,-1,-1,-1],"split_conditions":[3.96E2,1.8E1,-5.062311E-1,2E0,1.5E1,-5.9773606E-1,5E0,1.3E1,8.502115E-2,-7.5245017E-1,3.323893E-1,7.7579E4,3E0,-5.213524E-1,-7.11706E-2,-3.1747574E-1,2.1893544E-1],"split_indices":[77,75,0,255,42,0,203,203,0,0,0,0,253,0,0,0,0],"split_type":[0,0,0,0,0,0,0,0,0,0,0,0,0,0,0,0,0],"sum_hessian":[5.9961274E3,5.6081953E3,3.879324E2,5.512766E3,9.542939E1,7.433151E0,5.5053325E3,9.3929375E1,1.5000117E0,1.0960562E0,5.504237E3,8.926969E1,4.659682E0,8.779822E1,1.4714785E0,2.942957E0,1.7167249E0],"tree_param":{"num_deleted":"0","num_feature":"257","num_nodes":"17","size_leaf_vector":"1"}},{"base_weights":[8.466297E-1,1.0233414E0,-4.238236E-1,1.0707792E0,-1.3255616E0,-1.4535451E0,1.0756322E0,-1.3548586E0,7.2958365E-2,-4.7062907E-1,-1.046594E-1,-5.658361E-1,3.2310262E-1,-1.4108967E0,-3.025222E-1,-4.2934212E-1,-5.891132E-2,-3.2398894E-1,4.8781618E-1,-1.4227507E-1,3.6393303E-1],"categories":[],"categories_nodes":[],"categories_segments":[],"categories_sizes":[],"default_left":[0,0,0,0,0,0,0,0,0,0,0,0,0,0,0,0,0,0,0,0,0],"id":2,"left_children":[1,3,-1,5,7,9,11,13,-1,-1,-1,-1,-1,15,17,-1,-1,-1,19,-1,-1],"loss_changes":[1.8392546E3,4.7718213E2,0E0,5.2842285E1,4.2347107E0,5.291214E-1,1.9064453E1,4.5010376E0,0E0,0E0,0E0,0E0,0E0,1.6629486E0,3.9049432E0,0E0,0E0,0E0,2.9583578E0,0E0,0E0],"parents":[2147483647,0,0,1,1,3,3,4,4,5,5,6,6,7,7,13,13,14,14,18,18],"right_children":[2,4,-1,6,8,10,12,14,-1,-1,-1,-1,-1,16,18,-1,-1,-1,20,-1,-1],"split_conditions":[3.96E2,1.8E1,-4.238236E-1,2E0,1.5E1,9.26E2,5E0,1.3E1,7.2958365E-2,-4.7062907E-1,-1.046594E-1,-5.658361E-1,3.2310262E-1,7.7579E4,7E0,-4.2934212E-1,-5.891132E-2,-3.2398894E-1,5.6778E4,-1.4227507E-1,3.6393303E-1],"split_indices":[77,75,0,255,42,16,203,203,0,0,0,0,0,0,25,0,0,0,0,0,0],"split_type":[0,0,0,0,0,0,0,0,0,0,0,0,0,0,0,0,0,0,0,0,0],"sum_hessian":[4.602059E3,4.268737E3,3.333223E2,4.1847666E3,8.3970245E1,7.457025E0,4.1773096E3,8.2564674E1,1.4055724E0,6.372288E0,1.0847368E0,1.3043592E0,4.1760054E3,7.80668E1,4.497871E0,7.6611496E1,1.4553053E0,2.082701E0,2.41517E0,1.1869141E0,1.2282559E0],"tree_param":{"num_deleted":"0","num_feature":"257","num_nodes":"21","size_leaf_vector":"1"}},{"base_weights":[8.24456E-1,1.0002047E0,-3.8047233E-1,1.0483723E0,-1.1634942E0,1.0537058E0,-1.1566051E0,-1.2182233E0,-2.4830066E-1,-5.527449E-1,3.166369E-1,-7.631591E-2,-3.844981E-1,-1.250496E0,6.254961E-2,-2.8718087E-1,4.3732917E-1,-3.8175473E-1,-4.8808675E-2,-1.1094742E-1,3.0415633E-1],"categories":[],"categories_nodes":[],"categories_segments":[],"categories_sizes":[],"default_left":[0,0,0,0,0,0,0,0,0,0,0,0,0,0,0,0,0,0,0,0,0],"id":3,"left_children":[1,3,-1,5,7,9,11,13,15,-1,-1,-1,-1,17,-1,-1,19,-1,-1,-1,-1],"loss_changes":[1.2872983E3,3.3746558E2,0E0,3.834131E1,3.2403717E0,1.7911621E1,5.8715534E-1,3.3219986E0,2.969249E0,0E0,0E0,0E0,0E0,1.3536987E0,0E0,0E0,1.9356737E0,0E0,0E0,0E0,0E0],"parents":[2147483647,0,0,1,1,3,3,4,4,5,5,6,6,7,7,8,8,13,13,16,16],"right_children":[2,4,-1,6,8,10,12,14,16,-1,-1,-1,-1,18,-1,-1,20,-1,-1,-1,-1],"split_conditions":[3.96E2,1.8E1,-3.8047233E-1,4.07E2,1.3E1,5E0,1.36E2,1.5E1,3E1,-5.527449E-1,3.166369E-1,-7.631591E-2,-3.844981E-1,7.7579E4,6.254961E-2,-2.8718087E-1,5.6778E4,-3.8175473E-1,-4.8808675E-2,-1.1094742E-1,3.0415633E-1],"split_indices":[77,75,0,22,203,203,33,42,36,0,0,0,0,0,0,0,0,0,0,0,0],"split_type":[0,0,0,0,0,0,0,0,0,0,0,0,0,0,0,0,0,0,0,0,0],"sum_hessian":[3.4956533E3,3.2253079E3,2.7034555E2,3.155575E3,6.9732796E1,3.1484812E3,7.093726E0,6.54856E1,4.247189E0,1.2666206E0,3.1472146E3,1.2329215E0,5.8608046E0,6.415786E1,1.3277453E0,1.8932757E0,2.3539133E0,6.2718483E1,1.4393734E0,1.1301686E0,1.2237448E0],"tree_param":{"num_deleted":"0","num_feature":"257","num_nodes":"21","size_leaf_vector":"1"}},{"base_weights":[8.081985E-1,9.8307145E-1,-3.54302E-1,1.0320061E0,-1.0571258E0,-1.0591537E0,1.0375961E0,-1.1155579E0,-2.0928909E-1,-3.46739E-1,-8.0989584E-2,-3.6258057E-1,3.1185326E-1,-1.150352E0,5.358712E-2,-2.5349772E-1,3.7662396E-1,-3.5286668E-1,-4.0459152E-2,-9.522869E-2,2.6228938E-1],"categories":[],"categories_nodes":[],"categories_segments":[],"categories_sizes":[],"default_left":[0,0,0,0,0,0,0,0,0,0,0,0,0,0,0,0,0,0,0,0,0],"id":4,"left_children":[1,3,-1,5,7,9,11,13,15,-1,-1,-1,-1,17,-1,-1,19,-1,-1,-1,-1],"loss_changes":[9.1902625E2,2.4328882E2,0E0,2.8798584E1,2.6061096E0,2.0755005E-1,1.1422852E1,2.6096954E0,2.1532185E0,0E0,0E0,0E0,0E0,1.2108154E0,0E0,0E0,1.4019712E0,0E0,0E0,0E0,0E0],"parents":[2147483647,0,0,1,1,3,3,4,4,5,5,6,6,7,7,8,8,13,13,16,16],"right_children":[2,4,-1,6,8,10,12,14,16,-1,-1,-1,-1,18,-1,-1,20,-1,-1,-1,-1],"split_conditions":[3.96E2,1.8E1,-3.54302E-1,2E0,1.3E1,4E0,5E0,1.5E1,3E1,-3.46739E-1,-8.0989584E-2,-3.6258057E-1,3.1185326E-1,7.7579E4,5.358712E-2,-2.5349772E-1,5.6778E4,-3.5286668E-1,-4.0459152E-2,-9.522869E-2,2.6228938E-1],"split_indices":[77,75,0,255,203,20,203,42,36,0,0,0,0,0,0,0,0,0,0,0,0],"split_type":[0,0,0,0,0,0,0,0,0,0,0,0,0,0,0,0,0,0,0,0,0],"sum_hessian":[2.6376206E3,2.424947E3,2.1267361E2,2.368629E3,5.6317993E1,5.812353E0,2.3628167E3,5.239145E1,3.9265432E0,4.7643757E0,1.0479776E0,1.4757073E0,2.361341E3,5.1128006E1,1.2634423E0,1.6711739E0,2.2553692E0,4.97035E1,1.424507E0,1.0931058E0,1.1622634E0],"tree_param":{"num_deleted":"0","num_feature":"257","num_nodes":"21","size_leaf_vector":"1"}},{"base_weights":[7.9574037E-1,9.698101E-1,-3.3721784E-1,1.0196402E0,-9.7762406E-1,1.0259125E0,-9.426548E-1,-1.041161E0,-1.7978065E-1,-3.4649682E-1,3.0852333E-1,-4.6996694E-2,-3.2038742E-1,-1.0800688E0,4.5883868E-2,-2.3194532E-1,3.527191E-1,-3.3350974E-1,-3.354653E-2,-1.2089298E-1,2.7083427E-1],"categories":[],"categories_nodes":[],"categories_segments":[],"categories_sizes":[],"default_left":[0,0,0,0,0,0,0,0,0,0,0,0,0,0,0,0,0,0,0,0,0],"id":5,"left_children":[1,3,-1,5,7,9,11,13,15,-1,-1,-1,-1,17,-1,-1,19,-1,-1,-1,-1],"loss_changes":[6.636023E2,1.7743921E2,0E0,2.2793945E1,2.138279E0,1.0822632E1,4.405179E-1,2.129593E0,1.723777E0,0E0,0E0,0E0,0E0,1.1335335E0,0E0,0E0,1.6553487E0,0E0,0E0,0E0,0E0],"parents":[2147483647,0,0,1,1,3,3,4,4,5,5,6,6,7,7,8,8,13,13,16,16],"right_children":[2,4,-1,6,8,10,12,14,16,-1,-1,-1,-1,18,-1,-1,20,-1,-1,-1,-1],"split_conditions":[3.96E2,1.8E1,-3.3721784E-1,4.07E2,1.3E1,5E0,4.4E1,1.5E1,7E0,-3.4649682E-1,3.0852333E-1,-4.6996694E-2,-3.2038742E-1,7.7579E4,4.5883868E-2,-2.3194532E-1,1.395E3,-3.3350974E-1,-3.354653E-2,-1.2089298E-1,2.7083427E-1],"split_indices":[77,75,0,22,203,203,121,42,25,0,0,0,0,0,0,0,122,0,0,0,0],"split_type":[0,0,0,0,0,0,0,0,0,0,0,0,0,0,0,0,0,0,0,0,0],"sum_hessian":[1.9815065E3,1.8172314E3,1.6427495E2,1.7723577E3,4.4873825E1,1.7671862E3,5.1714973E0,4.1281384E1,3.5924416E0,1.4943948E0,1.7656918E3,1.0204779E0,4.1510196E0,4.007123E1,1.2101535E0,1.4853604E0,2.1070812E0,3.866014E1,1.411089E0,1.0002699E0,1.1068112E0],"tree_param":{"num_deleted":"0","num_feature":"257","num_nodes":"21","size_leaf_vector":"1"}},{"base_weights":[7.858011E-1,9.591431E-1,-3.254349E-1,1.0101026E0,-9.112195E-1,1.0169369E0,-8.427004E-1,3.7920028E-2,-9.574405E-1,-2.9265293E-1,3.05952E-1,-3.491148E-2,-2.9534596E-1,-9.9054533E-1,-2.7817786E-2,-3.1141368E-1,-3.50687E-1,1.3800992E-1,-2.4769284E-1],"categories":[],"categories_nodes":[],"categories_segments":[],"categories_sizes":[],"default_left":[0,0,0,0,0,0,0,0,0,0,0,0,0,0,0,0,0,0,0],"id":6,"left_children":[1,3,-1,5,7,9,11,-1,13,-1,-1,-1,-1,15,-1,-1,17,-1,-1],"loss_changes":[4.8261377E2,1.305232E2,0E0,1.7624146E1,1.8759155E0,8.628662E0,4.429016E-1,0E0,9.1428375E-1,0E0,0E0,0E0,0E0,6.616783E-1,0E0,0E0,1.8593453E0,0E0,0E0],"parents":[2147483647,0,0,1,1,3,3,4,4,5,5,6,6,8,8,13,13,16,16],"right_children":[2,4,-1,6,8,10,12,-1,14,-1,-1,-1,-1,16,-1,-1,18,-1,-1],"split_conditions":[3.96E2,1.8E1,-3.254349E-1,4.07E2,9.5E1,5E0,1.74E2,3.7920028E-2,7.7579E4,-2.9265293E-1,3.05952E-1,-3.491148E-2,-2.9534596E-1,1.3E1,-2.7817786E-2,-3.1141368E-1,1E0,1.3800992E-1,-2.4769284E-1],"split_indices":[77,75,0,22,119,203,33,0,0,0,0,0,0,203,0,0,121,0,0],"split_type":[0,0,0,0,0,0,0,0,0,0,0,0,0,0,0,0,0,0,0],"sum_hessian":[1.4841879E3,1.3587622E3,1.25425575E2,1.3231713E3,3.559094E1,1.318758E3,4.4131866E0,1.4438194E0,3.4147118E1,1.4312699E0,1.3173268E3,1.018167E0,3.3950195E0,3.2747875E1,1.3992417E0,2.9905523E1,2.8423545E0,1.0616326E0,1.7807219E0],"tree_param":{"num_deleted":"0","num_feature":"257","num_nodes":"19","size_leaf_vector":"1"}},{"base_weights":[7.7693915E-1,9.495038E-1,-3.1697458E-1,1.0020766E0,-8.2949466E-1,1.0096197E0,-7.5354373E-1,-8.9007926E-1,7.1058154E-2,-2.544845E-1,3.038939E-1,-2.7433115E-1,-2.2934929E-2,-9.8095465E-1,-6.474071E-2,-3.0898467E-1,-2.306761E-2,-1.9073106E-1,1.1028468E-1],"categories":[],"categories_nodes":[],"categories_segments":[],"categories_sizes":[],"default_left":[0,0,0,0,0,0,0,0,0,0,0,0,0,0,0,0,0,0,0],"id":7,"left_children":[1,3,-1,5,7,9,11,13,-1,-1,-1,-1,-1,15,17,-1,-1,-1,-1],"loss_changes":[3.5261987E2,9.5876465E1,0E0,1.3838257E1,2.1306686E0,7E0,4.527135E-1,2.0612755E0,0E0,0E0,0E0,0E0,0E0,1.0480347E0,1.1917765E0,0E0,0E0,0E0,0E0],"parents":[2147483647,0,0,1,1,3,3,4,4,5,5,6,6,7,7,13,13,14,14],"right_children":[2,4,-1,6,8,10,12,14,-1,-1,-1,-1,-1,16,18,-1,-1,-1,-1],"split_conditions":[2.2E1,1.8E1,-3.1697458E-1,4.07E2,1.5E1,5E0,5.9887E4,1.3E1,7.1058154E-2,-2.544845E-1,3.038939E-1,-2.7433115E-1,-2.2934929E-2,7.7579E4,5.3323E4,-3.0898467E-1,-2.306761E-2,-1.9073106E-1,1.1028468E-1],"split_indices":[203,75,0,22,42,203,0,203,0,0,0,0,0,0,0,0,0,0,0],"split_type":[0,0,0,0,0,0,0,0,0,0,0,0,0,0,0,0,0,0,0],"sum_hessian":[1.1103011E3,1.01523303E3,9.506805E1,9.865163E2,2.871678E1,9.8271893E2,3.79734E0,2.7329378E1,1.3874023E0,1.3200305E0,9.813989E2,2.7850215E0,1.0123183E0,2.4448847E1,2.8805315E0,2.3059906E1,1.3889397E0,1.0384859E0,1.8420457E0],"tree_param":{"num_deleted":"0","num_feature":"257","num_nodes":"19","size_leaf_vector":"1"}},{"base_weights":[7.688376E-1,9.406763E-1,-3.1044328E-1,9.9556994E-1,-7.712308E-1,-2.2607666E-1,1.0036731E0,-8.361424E-1,6.0914207E-2,-2.0686422E-1,3.0212837E-1,-9.365752E-1,-1.0347761E-1,-2.9939932E-1,-1.9127825E-2,-1.868563E-1,9.9231325E-2],"categories":[],"categories_nodes":[],"categories_segments":[],"categories_sizes":[],"default_left":[0,0,0,0,0,0,0,0,0,0,0,0,0,0,0,0,0],"id":8,"left_children":[1,3,-1,5,7,-1,9,11,-1,-1,-1,13,15,-1,-1,-1,-1],"loss_changes":[2.5841394E2,7.208325E1,0E0,1.1184692E1,1.6965637E0,0E0,4.939575E0,1.5829515E0,0E0,0E0,0E0,1.0060596E0,1.0802928E0,0E0,0E0,0E0,0E0],"parents":[2147483647,0,0,1,1,3,3,4,4,6,6,7,7,11,11,12,12],"right_children":[2,4,-1,6,8,-1,10,12,-1,-1,-1,14,16,-1,-1,-1,-1],"split_conditions":[3.96E2,1.8E1,-3.1044328E-1,2E0,1.5E1,-2.2607666E-1,5E0,1.3E1,6.0914207E-2,-2.0686422E-1,3.0212837E-1,7.7579E4,7E0,-2.9939932E-1,-1.9127825E-2,-1.868563E-1,9.9231325E-2],"split_indices":[77,75,0,255,42,0,203,203,0,0,0,0,25,0,0,0,0],"split_type":[0,0,0,0,0,0,0,0,0,0,0,0,0,0,0,0,0],"sum_hessian":[8.296228E2,7.578945E2,7.172832E1,7.347525E2,2.3141983E1,2.9638665E0,7.3178864E2,2.1829376E1,1.3126065E0,1.0713016E0,7.3071735E2,1.8953009E1,2.876368E0,1.757293E1,1.3800793E0,1.1120231E0,1.7643449E0],"tree_param":{"num_deleted":"0","num_feature":"257","num_nodes":"17","size_leaf_vector":"1"}},{"base_weights":[7.607166E-1,9.3164885E-1,-3.0517074E-1,9.8910606E-1,-7.115856E-1,9.9884176E-1,-6.6649354E-1,-3.153913E-1,-9.6580666E-1,-2.0334785E-1,3.0101943E-1,-2.3920615E-1,-4.9928658E-2,-2.4321051E-1,5.8408476E-2,-3.0908838E-1,-5.5355173E-2,-5.790084E-1,2.8627568E-1,-2.295879E-1,-8.8573005E-3],"categories":[],"categories_nodes":[],"categories_segments":[],"categories_sizes":[],"default_left":[0,0,0,0,0,0,0,0,0,0,0,0,0,0,0,0,0,0,0,0,0],"id":9,"left_children":[1,3,-1,5,7,9,11,13,15,-1,-1,-1,-1,-1,17,-1,-1,19,-1,-1,-1],"loss_changes":[1.8961758E2,5.422632E1,0E0,9.501038E0,1.6829672E0,4.8461304E0,1.16245866E-1,1.7503196E0,3.9109612E-1,0E0,0E0,0E0,0E0,0E0,4.0784574E0,0E0,0E0,4.104005E-1,0E0,0E0,0E0],"parents":[2147483647,0,0,1,1,3,3,4,4,5,5,6,6,7,7,8,8,14,14,17,17],"right_children":[2,4,-1,6,8,10,12,14,16,-1,-1,-1,-1,-1,18,-1,-1,20,-1,-1,-1],"split_conditions":[3.96E2,1.8E1,-3.0517074E-1,4.07E2,4.86E2,5E0,5.2358E4,5E0,2.8E1,-2.0334785E-1,3.0101943E-1,-2.3920615E-1,-4.9928658E-2,-2.4321051E-1,1.9E1,-3.0908838E-1,-5.5355173E-2,1.9E1,2.8627568E-1,-2.295879E-1,-8.8573005E-3],"split_indices":[77,75,0,22,6,203,0,203,75,0,0,0,0,0,25,0,0,23,0,0,0],"split_type":[0,0,0,0,0,0,0,0,0,0,0,0,0,0,0,0,0,0,0,0,0],"sum_hessian":[6.198096E2,5.658817E2,5.3927845E1,5.4714825E2,1.873348E1,5.4434393E2,2.8043065E0,8.1979265E0,1.0535553E1,1.0747547E0,5.432692E2,1.7514689E0,1.0528375E0,3.0231855E0,5.1747413E0,9.43784E0,1.0977124E0,3.2301064E0,1.9446349E0,2.1189857E0,1.1111207E0],"tree_param":{"num_deleted":"0","num_feature":"257","num_nodes":"21","size_leaf_vector":"1"}},{"base_weights":[7.5141394E-1,9.212486E-1,-3.0055737E-1,9.826203E-1,-6.5864086E-1,9.938683E-1,-5.975774E-1,-8.3050424E-1,-1.3340223E-1,1.0024028E0,6.713391E-1,-2.1969248E-1,-3.9760772E-2,-2.9514918E-1,-1.5467602E-1,-2.3385717E-1,2.7467203E-1,3.0120105E-1,5.667391E-2,8.38822E-1,-1.1593023E-1,-1.4897384E-1,9.920914E-2,2.6722604E-3,2.7439487E-1],"categories":[],"categories_nodes":[],"categories_segments":[],"categories_sizes":[],"default_left":[0,0,0,0,0,0,0,0,0,0,0,0,0,0,0,0,0,0,0,0,0,0,0,0,0],"id":10,"left_children":[1,3,-1,5,7,9,11,13,15,17,19,-1,-1,-1,21,-1,-1,-1,-1,23,-1,-1,-1,-1,-1],"loss_changes":[1.3917776E2,4.1741302E1,0E0,7.852417E0,1.3738422E0,4.4421387E-1,1.2291491E-1,1.1120768E0,4.2693634E0,3.225708E-1,2.7141318E0,0E0,0E0,0E0,7.3552996E-1,0E0,0E0,0E0,0E0,7.446232E-1,0E0,0E0,0E0,0E0,0E0],"parents":[2147483647,0,0,1,1,3,3,4,4,5,5,6,6,7,7,8,8,9,9,10,10,14,14,19,19],"right_children":[2,4,-1,6,8,10,12,14,16,18,20,-1,-1,-1,22,-1,-1,-1,-1,24,-1,-1,-1,-1,-1],"split_conditions":[3.96E2,1.8E1,-3.0055737E-1,4.07E2,4.7E1,1.202E3,3.17E2,1.3E1,4E0,1.1E1,9.9E1,-2.1969248E-1,-3.9760772E-2,-2.9514918E-1,3E0,-2.3385717E-1,2.7467203E-1,3.0120105E-1,5.667391E-2,9.4E1,-1.1593023E-1,-1.4897384E-1,9.920914E-2,2.6722604E-3,2.7439487E-1],"split_indices":[77,75,0,22,32,217,45,203,42,19,36,0,0,0,253,0,0,0,0,120,0,0,0,0,0],"split_type":[0,0,0,0,0,0,0,0,0,0,0,0,0,0,0,0,0,0,0,0,0,0,0,0,0],"sum_hessian":[4.633063E2,4.2282315E2,4.048318E1,4.0737643E2,1.54467125E1,4.048656E2,2.5108209E0,1.1200576E1,4.2461367E0,3.92375E2,1.2490617E1,1.5011848E0,1.009636E0,8.757913E0,2.4426637E0,2.7865925E0,1.459544E0,3.9137073E2,1.0042537E0,1.0961946E1,1.5286709E0,1.4195943E0,1.0230695E0,1.0112735E0,9.950672E0],"tree_param":{"num_deleted":"0","num_feature":"257","num_nodes":"25","size_leaf_vector":"1"}},{"base_weights":[7.417472E-1,9.102408E-1,-2.9620042E-1,9.7460085E-1,-5.982762E-1,-1.8288074E-1,9.8697406E-1,-2.0735969E-1,-8.850561E-1,3.002843E-1,5.622962E-1,-2.0700203E-1,1.0391056E-1,-7.9175085E-2,-2.843373E-1,8.054103E-1,-3.6644655E-1,-4.6137613E-1,2.3223841E-1,2.273058E-3,2.6890737E-1,-2.1606775E-1,4.7341038E-2,-1.9477881E-1,-2.2021877E-3],"categories":[],"categories_nodes":[],"categories_segments":[],"categories_sizes":[],"default_left":[0,0,0,0,0,0,0,0,0,0,0,0,0,0,0,0,0,0,0,0,0,0,0,0,0],"id":11,"left_children":[1,3,-1,5,7,-1,9,11,13,-1,15,-1,17,-1,-1,19,21,23,-1,-1,-1,-1,-1,-1,-1],"loss_changes":[1.023085E2,3.1427399E1,0E0,6.5816345E0,1.3432875E0,0E0,1.2358093E0,1.1337327E0,4.4064045E-2,0E0,2.9904163E0,0E0,2.3146505E0,0E0,0E0,7.023692E-1,7.0043385E-1,2.8778017E-1,0E0,0E0,0E0,0E0,0E0,0E0,0E0],"parents":[2147483647,0,0,1,1,3,3,4,4,6,6,7,7,8,8,10,10,12,12,15,15,16,16,17,17],"right_children":[2,4,-1,6,8,-1,10,12,14,-1,16,-1,18,-1,-1,20,22,24,-1,-1,-1,-1,-1,-1,-1],"split_conditions":[2.2E1,1.8E1,-2.9620042E-1,2E0,4.86E2,-1.8288074E-1,1.202E3,5E0,8.5E1,3.002843E-1,9.9E1,-2.0700203E-1,1.9E1,-7.9175085E-2,-2.843373E-1,9.4E1,2.439E3,1.9E1,2.3223841E-1,2.273058E-3,2.6890737E-1,-2.1606775E-1,4.7341038E-2,-1.9477881E-1,-2.2021877E-3],"split_indices":[203,75,0,255,6,0,217,203,16,0,36,0,25,0,0,120,123,23,0,0,0,0,0,0,0],"split_type":[0,0,0,0,0,0,0,0,0,0,0,0,0,0,0,0,0,0,0,0,0,0,0,0,0],"sum_hessian":[3.4708127E2,3.1669397E2,3.0387274E1,3.0407474E2,1.261924E1,1.9824593E0,3.020923E2,6.069213E0,6.5500264E0,2.911552E2,1.093707E1,1.9025016E0,4.1667113E0,1.078513E0,5.4715133E0,8.773304E0,2.1637652E0,2.4293275E0,1.737384E0,1.0086122E0,7.7646923E0,1.0687321E0,1.0950329E0,1.4141494E0,1.015178E0],"tree_param":{"num_deleted":"0","num_feature":"257","num_nodes":"25","size_leaf_vector":"1"}},{"base_weights":[7.289778E-1,8.958484E-1,-2.9166636E-1,9.6693844E-1,-5.506697E-1,9.8202163E-1,-1.4862548E-1,-7.2728556E-1,-2.888993E-2,9.9637944E-1,5.475244E-1,-8.794148E-1,1.7899752E-3,-1.999196E-1,2.324779E-1,7.302621E-2,2.9971814E-1,-1.4321974E-1,7.2902346E-1,-5.650356E-2,-2.8798607E-1,-4.1362762E-2,2.6055083E-1],"categories":[],"categories_nodes":[],"categories_segments":[],"categories_sizes":[],"default_left":[0,0,0,0,0,0,0,0,0,0,0,0,0,0,0,0,0,0,0,0,0,0,0],"id":12,"left_children":[1,3,-1,5,7,9,-1,11,13,15,17,19,-1,-1,-1,-1,-1,-1,21,-1,-1,-1,-1],"loss_changes":[7.516144E1,2.509314E1,0E0,5.5158386E0,1.0687406E0,8.6450195E-1,0E0,9.861469E-1,2.5824816E0,1.9602966E-1,2.1058986E0,2.249012E-1,0E0,0E0,0E0,0E0,0E0,0E0,1.1383038E0,0E0,0E0,0E0,0E0],"parents":[2147483647,0,0,1,1,3,3,4,4,5,5,7,7,8,8,9,9,10,10,11,11,18,18],"right_children":[2,4,-1,6,8,10,-1,12,14,16,18,20,-1,-1,-1,-1,-1,-1,22,-1,-1,-1,-1],"split_conditions":[3.96E2,1.8E1,-2.9166636E-1,4.07E2,4.7E1,1.202E3,-1.4862548E-1,1.1E1,4E0,1.28E2,9.3E1,1E-3,1.7899752E-3,-1.999196E-1,2.324779E-1,7.302621E-2,2.9971814E-1,-1.4321974E-1,7E-3,-5.650356E-2,-2.8798607E-1,-4.1362762E-2,2.6055083E-1],"split_indices":[77,75,0,22,32,217,0,253,42,21,120,65,0,0,0,0,0,0,66,0,0,0,0],"split_type":[0,0,0,0,0,0,0,0,0,0,0,0,0,0,0,0,0,0,0,0,0,0,0],"sum_hessian":[2.6069672E2,2.3784036E2,2.2856352E1,2.270151E2,1.0825264E1,2.2502261E2,1.9924889E0,7.7934313E0,3.0318322E0,2.1657288E2,8.449729E0,6.2892528E0,1.5041785E0,1.7861714E0,1.2456608E0,1.0941014E0,2.1547878E2,1.0259404E0,7.423789E0,1.0049292E0,5.2843237E0,1.030495E0,6.393294E0],"tree_param":{"num_deleted":"0","num_feature":"257","num_nodes":"23","size_leaf_vector":"1"}},{"base_weights":[7.146743E-1,8.793394E-1,-2.8664282E-1,9.564056E-1,-4.9268058E-1,-1.6035664E-1,9.7326815E-1,-1.29907E-1,-7.904702E-1,2.989404E-1,4.3984276E-1,-1.8522888E-1,1.5934232E-1,-2.7076694E-1,-7.3411316E-2,7.176303E-1,-1.01793155E-1,-8.560819E-2,4.1834834E-1,2.8973408E-3,2.5174183E-1,1.1793652E-2,1.7784107E-1],"categories":[],"categories_nodes":[],"categories_segments":[],"categories_sizes":[],"default_left":[0,0,0,0,0,0,0,0,0,0,0,0,0,0,0,0,0,0,0,0,0,0,0],"id":13,"left_children":[1,3,-1,5,7,-1,9,11,13,-1,15,-1,17,-1,-1,19,-1,-1,21,-1,-1,-1,-1],"loss_changes":[5.5145203E1,1.9531357E1,0E0,4.819687E0,1.0042725E0,0E0,1.658783E0,9.1853243E-1,1.1135435E-1,0E0,2.1596417E0,0E0,6.313764E-1,0E0,0E0,5.809338E-1,0E0,0E0,1.8925977E-1,0E0,0E0,0E0,0E0],"parents":[2147483647,0,0,1,1,3,3,4,4,6,6,7,7,8,8,10,10,12,12,15,15,18,18],"right_children":[2,4,-1,6,8,-1,10,12,14,-1,16,-1,18,-1,-1,20,-1,-1,22,-1,-1,-1,-1],"split_conditions":[3.96E2,1.8E1,-2.8664282E-1,2E0,4.86E2,-1.6035664E-1,1.202E3,2.4E1,5.4E1,2.989404E-1,9.9E1,-1.8522888E-1,6E0,-2.7076694E-1,-7.3411316E-2,1.067E3,-1.01793155E-1,-8.560819E-2,2.466E3,2.8973408E-3,2.5174183E-1,1.1793652E-2,1.7784107E-1],"split_indices":[77,75,0,255,6,0,217,75,32,0,36,0,203,0,0,122,0,0,122,0,0,0,0],"split_type":[0,0,0,0,0,0,0,0,0,0,0,0,0,0,0,0,0,0,0,0,0,0,0],"sum_hessian":[1.9646162E2,1.7926123E2,1.7200403E1,1.7001447E2,9.246765E0,1.5580541E0,1.684564E2,4.8160224E0,4.4307427E0,1.6060338E2,7.8530316E0,1.3708669E0,3.4451554E0,3.133466E0,1.2972767E0,5.8472886E0,2.005743E0,1.2305675E0,2.214588E0,1.0146881E0,4.8326006E0,1.0842334E0,1.1303546E0],"tree_param":{"num_deleted":"0","num_feature":"257","num_nodes":"23","size_leaf_vector":"1"}},{"base_weights":[6.9635326E-1,9.246614E-1,-4.9499768E-1,-5.050275E-1,2.9783142E-1,5.487991E-1,-8.247126E-1,5.0372817E-2,-2.2450985E-1,-1.4887527E-1,2.4819583E-1,-2.8612188E-1,-1.03878796E-1,-2.0507677E-1,2.041281E-1],"categories":[],"categories_nodes":[],"categories_segments":[],"categories_sizes":[],"default_left":[0,0,0,0,0,0,0,0,0,0,0,0,0,0,0],"id":14,"left_children":[1,3,5,7,-1,9,11,-1,-1,-1,-1,-1,13,-1,-1],"loss_changes":[4.117122E1,1.2766983E1,8.961317E0,1.1721454E0,0E0,2.3127928E0,1.6855545E0,0E0,0E0,0E0,0E0,0E0,2.2999053E0,0E0,0E0],"parents":[2147483647,0,0,1,1,2,2,3,3,5,5,6,6,12,12],"right_children":[2,4,6,8,-1,10,12,-1,-1,-1,-1,-1,14,-1,-1],"split_conditions":[1.202E3,1E0,1E0,1.2E1,2.9783142E-1,9.3E1,4.2E1,5.0372817E-2,-2.2450985E-1,-1.4887527E-1,2.4819583E-1,-2.8612188E-1,5E0,-2.0507677E-1,2.041281E-1],"split_indices":[217,131,72,26,0,120,32,0,0,0,0,0,203,0,0],"split_type":[0,0,0,0,0,0,0,0,0,0,0,0,0,0,0],"sum_hessian":[1.4868475E2,1.2496129E2,2.3723473E1,5.390703E0,1.1957059E2,5.5353723E0,1.81881E1,1.5139506E0,3.8767529E0,1.0003116E0,4.5350604E0,1.5152709E1,3.0353928E0,1.8191812E0,1.2162116E0],"tree_param":{"num_deleted":"0","num_feature":"257","num_nodes":"15","size_leaf_vector":"1"}},{"base_weights":[6.79313E-1,9.1256493E-1,-4.5727938E-1,-4.389328E-1,2.9651424E-1,-2.8160483E-1,2.1283825E-1,-2.082011E-1,5.807532E-2,-1.9268727E-1,4.733081E-1,-1.0789862E-1,6.9384813E-1,6.5486185E-4,2.4770132E-1],"categories":[],"categories_nodes":[],"categories_segments":[],"categories_sizes":[],"default_left":[0,0,0,0,0,0,0,0,0,0,0,0,0,0,0],"id":15,"left_children":[1,3,5,7,-1,-1,9,-1,-1,-1,11,-1,13,-1,-1],"loss_changes":[3.054985E1,1.0131088E1,6.658079E0,1.0571196E0,0E0,0E0,2.3497314E0,0E0,0E0,0E0,1.6486168E0,0E0,5.7835793E-1,0E0,0E0],"parents":[2147483647,0,0,1,1,2,2,3,3,6,6,10,10,12,12],"right_children":[2,4,6,8,-1,-1,10,-1,-1,-1,12,-1,14,-1,-1],"split_conditions":[1.202E3,1E0,1E1,1.54E2,2.9651424E-1,-2.8160483E-1,5E0,-2.082011E-1,5.807532E-2,-1.9268727E-1,9.3E1,-1.0789862E-1,6E1,6.5486185E-4,2.4770132E-1],"split_indices":[217,131,18,98,0,0,203,0,0,0,120,0,34,0,0],"split_type":[0,0,0,0,0,0,0,0,0,0,0,0,0,0,0],"sum_hessian":[1.1265953E2,9.363983E1,1.90197E1,4.719538E0,8.8920296E1,1.0835122E1,8.184577E0,3.293986E0,1.4255522E0,1.568677E0,6.6158996E0,1.2529057E0,5.3629937E0,1.0212301E0,4.341764E0],"tree_param":{"num_deleted":"0","num_feature":"257","num_nodes":"15","size_leaf_vector":"1"}},{"base_weights":[6.5585613E-1,8.973824E-1,-4.2349112E-1,-3.786883E-1,2.947396E-1,-8.614437E-1,2.3177335E-1,5.1483743E-2,-1.9080727E-1,-2.75668E-1,-5.441097E-2,-1.694181E-1,4.7048637E-1,-8.099144E-2,2.1879764E-1],"categories":[],"categories_nodes":[],"categories_segments":[],"categories_sizes":[],"default_left":[0,0,0,0,0,0,0,0,0,0,0,0,0,0,0],"id":16,"left_children":[1,3,5,7,-1,9,11,-1,-1,-1,-1,-1,13,-1,-1],"loss_changes":[2.3059223E1,8.125111E0,4.95971E0,8.4347284E-1,0E0,2.3006153E-1,1.6789489E0,0E0,0E0,0E0,0E0,0E0,1.397535E0,0E0,0E0],"parents":[2147483647,0,0,1,1,2,2,3,3,5,5,6,6,12,12],"right_children":[2,4,6,8,-1,10,12,-1,-1,-1,-1,-1,14,-1,-1],"split_conditions":[1.202E3,1E0,1.1E1,1.2E1,2.947396E-1,3.3E1,5E0,5.1483743E-2,-1.9080727E-1,-2.75668E-1,-5.441097E-2,-1.694181E-1,9.3E1,-8.099144E-2,2.1879764E-1],"split_indices":[217,131,18,26,0,32,203,0,0,0,0,0,120,0,0],"split_type":[0,0,0,0,0,0,0,0,0,0,0,0,0,0,0],"sum_hessian":[8.599654E1,7.040954E1,1.5586999E1,4.1854534E0,6.622409E1,9.154109E0,6.4328904E0,1.439745E0,2.7457085E0,8.117234E0,1.0368748E0,1.1684556E0,5.264435E0,1.3524597E0,3.9119751E0],"tree_param":{"num_deleted":"0","num_feature":"257","num_nodes":"15","size_leaf_vector":"1"}},{"base_weights":[6.263514E-1,8.775857E-1,-3.9200518E-1,-3.2480106E-1,2.9225883E-1,-7.2860783E-1,3.5844594E-1,6.525358E-2,-1.7978367E-1,-8.2660717E-1,1.2367287E-2,-4.678389E-2,1.704317E-1,-2.7783096E-1,-2.172038E-2],"categories":[],"categories_nodes":[],"categories_segments":[],"categories_sizes":[],"default_left":[0,0,0,0,0,0,0,0,0,0,0,0,0,0,0],"id":17,"left_children":[1,3,5,7,-1,9,11,-1,-1,13,-1,-1,-1,-1,-1],"loss_changes":[1.7535036E1,6.613041E0,3.7945266E0,8.4206843E-1,0E0,7.8746843E-1,6.279946E-1,0E0,0E0,6.012616E-1,0E0,0E0,0E0,0E0,0E0],"parents":[2147483647,0,0,1,1,2,2,3,3,5,5,6,6,9,9],"right_children":[2,4,6,8,-1,10,12,-1,-1,14,-1,-1,-1,-1,-1],"split_conditions":[1.202E3,1E0,2.7E1,9E0,2.9225883E-1,2.1E1,3E1,6.525358E-2,-1.7978367E-1,5.7E1,1.2367287E-2,-4.678389E-2,1.704317E-1,-2.7783096E-1,-2.172038E-2],"split_indices":[217,131,18,42,0,63,121,0,0,32,0,0,0,0,0],"split_type":[0,0,0,0,0,0,0,0,0,0,0,0,0,0,0],"sum_hessian":[6.6192795E1,5.3205044E1,1.2987752E1,3.7813532E0,4.942369E1,8.986231E0,4.001521E0,1.3404454E0,2.440908E0,7.9060445E0,1.0801865E0,1.2328827E0,2.7686384E0,6.783268E0,1.1227766E0],"tree_param":{"num_deleted":"0","num_feature":"257","num_nodes":"15","size_leaf_vector":"1"}},{"base_weights":[5.897911E-1,8.525681E-1,-3.3558998E-1,-2.2988254E-1,2.911256E-1,-2.4529378E-1,1.3600053E-1,7.7297635E-2,-1.6031295E-1,-1.6463582E-1,3.551469E-1,-6.9216914E-2,2.02076E-1],"categories":[],"categories_nodes":[],"categories_segments":[],"categories_sizes":[],"default_left":[0,0,0,0,0,0,0,0,0,0,0,0,0],"id":18,"left_children":[1,3,5,7,-1,-1,9,-1,-1,-1,11,-1,-1],"loss_changes":[1.3144371E1,5.512747E0,2.9329042E0,8.621025E-1,0E0,0E0,1.265128E0,0E0,0E0,0E0,1.2766163E0,0E0,0E0],"parents":[2147483647,0,0,1,1,2,2,3,3,6,6,10,10],"right_children":[2,4,6,8,-1,-1,10,-1,-1,-1,12,-1,-1],"split_conditions":[1.202E3,7.1E1,1E1,1.3E1,2.911256E-1,-2.4529378E-1,5E0,7.7297635E-2,-1.6031295E-1,-1.6463582E-1,1.04E2,-6.9216914E-2,2.02076E-1],"split_indices":[217,99,18,26,0,0,203,0,0,0,45,0,0],"split_type":[0,0,0,0,0,0,0,0,0,0,0,0,0],"sum_hessian":[5.1877895E1,4.046569E1,1.1412206E1,3.8797524E0,3.6585938E1,5.280607E0,6.1315985E0,1.5506839E0,2.3290684E0,1.121851E0,5.0097475E0,1.8611095E0,3.1486378E0],"tree_param":{"num_deleted":"0","num_feature":"257","num_nodes":"13","size_leaf_vector":"1"}},{"base_weights":[5.50691E-1,2.8738678E-1,-7.104322E-2,-3.9920673E-1,6.7067826E-1,-7.302885E-1,8.668671E-2,4.7221906E-2,2.2463551E-1,-4.2159176E-1,-3.4348395E-1,-1.6755258E-1,3.52789E-1,-2.1132451E-1,6.423253E-2,-3.7871573E-2,1.8718936E-1],"categories":[],"categories_nodes":[],"categories_segments":[],"categories_sizes":[],"default_left":[0,0,0,0,0,0,0,0,0,0,0,0,0,0,0,0,0],"id":19,"left_children":[1,-1,3,5,7,9,11,-1,-1,13,-1,-1,15,-1,-1,-1,-1],"loss_changes":[1.06674185E1,0E0,4.526995E0,2.1157153E0,1.1227059E-1,5.021558E-1,1.2381808E0,0E0,0E0,1.2283691E0,0E0,0E0,7.1609694E-1,0E0,0E0,0E0,0E0],"parents":[2147483647,0,0,2,2,3,3,4,4,5,5,6,6,9,9,12,12],"right_children":[2,-1,4,6,8,10,12,-1,-1,14,-1,-1,16,-1,-1,-1,-1],"split_conditions":[1.199E3,2.8738678E-1,5.2E-2,5.2358E4,1.311E3,1E0,5E0,4.7221906E-2,2.2463551E-1,1.8E1,-3.4348395E-1,-1.6755258E-1,1.8E1,-2.1132451E-1,6.423253E-2,-3.7871573E-2,1.8718936E-1],"split_indices":[217,0,67,0,95,128,203,0,0,26,0,0,197,0,0,0,0],"split_type":[0,0,0,0,0,0,0,0,0,0,0,0,0,0,0,0,0],"sum_hessian":[4.0859882E1,2.436131E1,1.6498573E1,1.1758143E1,4.7404304E0,6.693972E0,5.064171E0,1.02434E0,3.7160902E0,4.9933434E0,1.7006288E0,1.1578889E0,3.906282E0,3.381029E0,1.6123145E0,1.6051983E0,2.3010836E0],"tree_param":{"num_deleted":"0","num_feature":"257","num_nodes":"17","size_leaf_vector":"1"}},{"base_weights":[5.0397605E-1,2.8297797E-1,-7.219E-2,-3.6096394E-1,6.069532E-1,-6.57498E-1,6.255104E-2,4.366454E-2,2.1939856E-1,-9.2242384E-1,-2.229903E-1,-1.2569396E-1,2.6208127E-1,-1.0307556E-1,-3.9391482E-1,-1.734432E-1,5.4044157E-2,-4.1040804E-2,4.6336764E-1,3.974488E-2,1.7387702E-1],"categories":[],"categories_nodes":[],"categories_segments":[],"categories_sizes":[],"default_left":[0,0,0,0,0,0,0,0,0,0,0,0,0,0,0,0,0,0,0,0,0],"id":20,"left_children":[1,-1,3,5,7,9,11,-1,-1,13,15,-1,17,-1,-1,-1,-1,-1,19,-1,-1],"loss_changes":[8.644639E0,0E0,3.2761834E0,1.4934658E0,1.8184352E-1,5.8729243E-1,6.551233E-1,0E0,0E0,4.4440436E-1,6.66559E-1,0E0,4.3497524E-1,0E0,0E0,0E0,0E0,0E0,5.0266623E-2,0E0,0E0],"parents":[2147483647,0,0,2,2,3,3,4,4,5,5,6,6,9,9,10,10,12,12,18,18],"right_children":[2,-1,4,6,8,10,12,-1,-1,14,16,-1,18,-1,-1,-1,-1,-1,20,-1,-1],"split_conditions":[1.199E3,2.8297797E-1,5.2E-2,5.2358E4,6.4E-2,1.65E2,7E0,4.366454E-2,2.1939856E-1,1.638E4,1E0,-1.2569396E-1,1.3E1,-1.0307556E-1,-3.9391482E-1,-1.734432E-1,5.4044157E-2,-4.1040804E-2,2.1E1,3.974488E-2,1.7387702E-1],"split_indices":[217,0,67,0,66,45,42,0,0,48,131,0,19,0,0,0,0,0,23,0,0],"split_type":[0,0,0,0,0,0,0,0,0,0,0,0,0,0,0,0,0,0,0,0,0],"sum_hessian":[3.2885933E1,1.8297962E1,1.4587971E1,1.0564438E1,4.023533E0,5.888786E0,4.675652E0,1.3150868E0,2.708446E0,2.9606912E0,2.9280949E0,1.0476068E0,3.628045E0,1.9502857E0,1.0104055E0,1.3259001E0,1.6021947E0,1.3242236E0,2.3038216E0,1.1551167E0,1.1487048E0],"tree_param":{"num_deleted":"0","num_feature":"257","num_nodes":"21","size_leaf_vector":"1"}},{"base_weights":[4.476205E-1,2.771687E-1,-7.466596E-2,-2.8008267E-1,2.0941246E-1,-5.1695786E-2,-2.2412625E-1,2.9584342E-1,-4.2048767E-1,-8.186188E-2,1.9853885E-1,-7.647801E-1,5.19985E-2,-3.230448E-1,-4.2882614E-2],"categories":[],"categories_nodes":[],"categories_segments":[],"categories_sizes":[],"default_left":[0,0,0,0,0,0,0,0,0,0,0,0,0,0,0],"id":21,"left_children":[1,-1,3,5,-1,7,-1,9,11,-1,-1,13,-1,-1,-1],"loss_changes":[7.0792236E0,0E0,2.4759045E0,1.248018E0,0E0,1.3004403E0,0E0,1.2859187E0,1.1271313E0,0E0,0E0,4.794289E-1,0E0,0E0,0E0],"parents":[2147483647,0,0,2,2,3,3,5,5,7,7,8,8,11,11],"right_children":[2,-1,4,6,-1,8,-1,10,12,-1,-1,14,-1,-1,-1],"split_conditions":[1.199E3,2.771687E-1,7.2E-2,6E0,2.0941246E-1,2.3279E4,-2.2412625E-1,1.3E1,3.282E3,-8.186188E-2,1.9853885E-1,2.771E3,5.19985E-2,-3.230448E-1,-4.2882614E-2],"split_indices":[217,0,66,72,0,48,0,203,117,0,0,122,0,0,0],"split_type":[0,0,0,0,0,0,0,0,0,0,0,0,0,0,0],"sum_hessian":[2.7181637E1,1.3814864E1,1.3366773E1,1.1063248E1,2.3035252E0,8.175666E0,2.8875813E0,4.3109503E0,3.8647158E0,1.7874602E0,2.5234902E0,2.2640946E0,1.6006213E0,1.020397E0,1.2436975E0],"tree_param":{"num_deleted":"0","num_feature":"257","num_nodes":"15","size_leaf_vector":"1"}},{"base_weights":[4.0026447E-1,2.6961538E-1,-7.3380865E-2,-3.091828E-1,5.384137E-1,-6.25217E-1,2.5312074E-2,1.9378899E-1,4.4026952E-2,-2.2206862E-1,-3.4214735E-1,-1.5489773E-1,2.4549624E-1,6.008426E-2,-1.783607E-1,-5.0154667E-2,1.5272322E-1],"categories":[],"categories_nodes":[],"categories_segments":[],"categories_sizes":[],"default_left":[0,0,0,0,0,0,0,0,0,0,0,0,0,0,0,0,0],"id":22,"left_children":[1,-1,3,5,7,9,11,-1,-1,13,-1,-1,15,-1,-1,-1,-1],"loss_changes":[5.6050186E0,0E0,2.035347E0,1.0714569E0,7.237613E-2,8.214476E-1,8.199393E-1,0E0,0E0,7.710326E-1,0E0,0E0,6.083357E-1,0E0,0E0,0E0,0E0],"parents":[2147483647,0,0,2,2,3,3,4,4,5,5,6,6,9,9,12,12],"right_children":[2,-1,4,6,8,10,12,-1,-1,14,-1,-1,16,-1,-1,-1,-1],"split_conditions":[1.199E3,2.6961538E-1,5.2E-2,3.511E3,4.93E2,3.8682E4,5E0,1.9378899E-1,4.4026952E-2,6E0,-3.4214735E-1,-1.5489773E-1,1.8E1,6.008426E-2,-1.783607E-1,-5.0154667E-2,1.5272322E-1],"split_indices":[217,0,67,116,2,0,203,0,0,72,0,0,197,0,0,0,0],"split_type":[0,0,0,0,0,0,0,0,0,0,0,0,0,0,0,0,0],"sum_hessian":[2.2461672E1,1.050695E1,1.1954721E1,8.985933E0,2.9687884E0,4.1735663E0,4.8123665E0,1.8197699E0,1.1490186E0,3.1443846E0,1.029182E0,1.0021571E0,3.8102095E0,1.6901585E0,1.4542263E0,1.6276268E0,2.1825826E0],"tree_param":{"num_deleted":"0","num_feature":"257","num_nodes":"17","size_leaf_vector":"1"}},{"base_weights":[3.44469E-1,2.5995108E-1,-7.782629E-2,1.8659809E-1,-2.559467E-1,-4.7949795E-2,-2.0913061E-1,2.796415E-1,-4.1587564E-1,-7.236466E-2,1.8766257E-1,-2.2748913E-1,4.7492776E-2],"categories":[],"categories_nodes":[],"categories_segments":[],"categories_sizes":[],"default_left":[0,0,0,0,0,0,0,0,0,0,0,0,0],"id":23,"left_children":[1,-1,3,-1,5,7,-1,9,11,-1,-1,-1,-1],"loss_changes":[4.4938116E0,0E0,1.6571686E0,0E0,9.1055083E-1,1.0883849E0,0E0,1.0272794E0,9.4597584E-1,0E0,0E0,0E0,0E0],"parents":[2147483647,0,0,2,2,4,4,5,5,7,7,8,8],"right_children":[2,-1,4,-1,6,8,-1,10,12,-1,-1,-1,-1],"split_conditions":[1.199E3,2.5995108E-1,1E0,1.8659809E-1,2.821E3,2.49E4,-2.0913061E-1,1.3E1,3.207E3,-7.236466E-2,1.8766257E-1,-2.2748913E-1,4.7492776E-2],"split_indices":[217,0,197,0,97,48,0,203,117,0,0,0,0],"split_type":[0,0,0,0,0,0,0,0,0,0,0,0,0],"sum_hessian":[1.9078566E1,8.061357E0,1.1017208E1,1.7296351E0,9.287573E0,7.065165E0,2.2224083E0,3.8643777E0,3.200787E0,1.6629504E0,2.2014275E0,1.8041892E0,1.3965979E0],"tree_param":{"num_deleted":"0","num_feature":"257","num_nodes":"13","size_leaf_vector":"1"}},{"base_weights":[3.0523887E-1,2.479369E-1,-6.625639E-2,-2.6788747E-1,4.815852E-1,-4.4418854E-1,1.5822135E-1,4.1826893E-2,1.7073162E-1,-6.128463E-1,4.443288E-2,-1.6343532E-2,8.609858E-2,-8.9471734E-1,1.9132975E-2,-3.3194113E-1,-8.842691E-2],"categories":[],"categories_nodes":[],"categories_segments":[],"categories_sizes":[],"default_left":[0,0,0,0,0,0,0,0,0,0,0,0,0,0,0,0,0],"id":24,"left_children":[1,-1,3,5,7,9,11,-1,-1,13,-1,-1,-1,15,-1,-1,-1],"loss_changes":[3.3983989E0,0E0,1.3449713E0,7.2303134E-1,2.0042181E-2,7.309762E-1,1.0548271E-1,0E0,0E0,1.0455593E0,0E0,0E0,0E0,1.4713764E-1,0E0,0E0,0E0],"parents":[2147483647,0,0,2,2,3,3,4,4,5,5,6,6,9,9,13,13],"right_children":[2,-1,4,6,8,10,12,-1,-1,14,-1,-1,-1,16,-1,-1,-1],"split_conditions":[1.199E3,2.479369E-1,5.2E-2,1.304E3,6.4E-2,4E0,4.6E1,4.1826893E-2,1.7073162E-1,3.3E1,4.443288E-2,-1.6343532E-2,8.609858E-2,2.542E3,1.9132975E-2,-3.3194113E-1,-8.842691E-2],"split_indices":[217,0,67,17,66,37,35,0,0,32,0,0,0,122,0,0,0],"split_type":[0,0,0,0,0,0,0,0,0,0,0,0,0,0,0,0,0],"sum_hessian":[1.6268213E1,6.2602477E0,1.0007965E1,7.6890507E0,2.3189142E0,5.4087634E0,2.280287E0,1.0004945E0,1.3184196E0,4.1829658E0,1.2257978E0,1.0774972E0,1.2027899E0,2.725313E0,1.4576527E0,1.3903567E0,1.3349563E0],"tree_param":{"num_deleted":"0","num_feature":"257","num_nodes":"17","size_leaf_vector":"1"}},{"base_weights":[2.599221E-1,-1.6524884E-1,6.5375304E-1,-1.7759608E-1,1.757246E-3,2.4341504E-1,-4.0629275E-2,4.277692E-1,-3.4559038E-1,3.504134E-2,1.5450646E-1,5.8041044E-2,-5.9085035E-1,-2.3214974E-1,-2.8770551E-2],"categories":[],"categories_nodes":[],"categories_segments":[],"categories_sizes":[],"default_left":[0,0,0,0,0,0,0,0,0,0,0,0,0,0,0],"id":25,"left_children":[1,3,5,-1,7,-1,-1,9,11,-1,-1,-1,13,-1,-1],"loss_changes":[2.6999788E0,5.884113E-1,1.13464E0,0E0,1.1718999E0,0E0,0E0,3.630376E-2,6.914601E-1,0E0,0E0,0E0,2.1985698E-1,0E0,0E0],"parents":[2147483647,0,0,1,1,2,2,4,4,7,7,8,8,12,12],"right_children":[2,4,6,-1,8,-1,-1,10,12,-1,-1,-1,14,-1,-1],"split_conditions":[1.6E-2,5E0,7E0,-1.7759608E-1,3E0,2.4341504E-1,-4.0629275E-2,1.65E2,1.4E1,3.504134E-2,1.5450646E-1,5.8041044E-2,3.418E3,-2.3214974E-1,-2.8770551E-2],"split_indices":[66,203,76,0,37,0,0,45,203,0,0,0,90,0,0],"split_type":[0,0,0,0,0,0,0,0,0,0,0,0,0,0,0],"sum_hessian":[1.447935E1,7.2417393E0,7.237611E0,1.3211647E0,5.9205747E0,6.0092106E0,1.2284E0,2.555184E0,3.3653908E0,1.0722858E0,1.4828982E0,1.1184018E0,2.246989E0,1.2291228E0,1.0178663E0],"tree_param":{"num_deleted":"0","num_feature":"257","num_nodes":"15","size_leaf_vector":"1"}},{"base_weights":[2.1478155E-1,2.2469492E-1,-8.7179355E-2,1.5319532E-1,-2.2404926E-1,-1.8565007E-1,-2.9682586E-2,1.3212994E-1,-2.261957E-1,-1.3163729E-1,3.48902E-2,-8.888173E-2,1.0170938E-1],"categories":[],"categories_nodes":[],"categories_segments":[],"categories_sizes":[],"default_left":[0,0,0,0,0,0,0,0,0,0,0,0,0],"id":26,"left_children":[1,-1,3,-1,5,-1,7,-1,9,-1,11,-1,-1],"loss_changes":[2.2880187E0,0E0,9.080321E-1,0E0,6.4055157E-1,0E0,7.282572E-1,0E0,3.1833503E-1,0E0,4.4053608E-1,0E0,0E0],"parents":[2147483647,0,0,2,2,4,4,6,6,8,8,10,10],"right_children":[2,-1,4,-1,6,-1,8,-1,10,-1,12,-1,-1],"split_conditions":[1.199E3,2.2469492E-1,1E0,1.5319532E-1,1.086E3,-1.8565007E-1,1.3E1,1.3212994E-1,2E1,-1.3163729E-1,7E0,-8.888173E-2,1.0170938E-1],"split_indices":[217,0,197,0,2,0,75,0,197,0,203,0,0],"split_type":[0,0,0,0,0,0,0,0,0,0,0,0,0],"sum_hessian":[1.2779374E1,4.0803666E0,8.699007E0,1.1118156E0,7.5871916E0,1.7826166E0,5.804575E0,1.3452091E0,4.459366E0,2.0827775E0,2.3765883E0,1.1501378E0,1.2264507E0],"tree_param":{"num_deleted":"0","num_feature":"257","num_nodes":"13","size_leaf_vector":"1"}},{"base_weights":[1.9023356E-1,-6.8511836E-2,2.2567871E-1,7.679433E-2,-1.688604E-1,-1.6012545E-1,2.4029839E-1,2.0449105E-1,-1.6935962E-1,9.1392994E-2,-4.560754E-1,-2.4998721E-1,4.5525387E-2],"categories":[],"categories_nodes":[],"categories_segments":[],"categories_sizes":[],"default_left":[0,0,0,0,0,0,0,0,0,0,0,0,0],"id":27,"left_children":[1,3,-1,5,-1,-1,7,-1,9,-1,11,-1,-1],"loss_changes":[1.8732495E0,7.252413E-1,0E0,9.4860005E-1,0E0,0E0,1.4120102E0,0E0,7.5324845E-1,0E0,8.6404544E-1,0E0,0E0],"parents":[2147483647,0,0,1,1,3,3,6,6,8,8,10,10],"right_children":[2,4,-1,6,-1,-1,8,-1,10,-1,12,-1,-1],"split_conditions":[7.2E-2,3.96E2,2.2567871E-1,5E0,-1.688604E-1,-1.6012545E-1,9E0,2.0449105E-1,4.1507E4,9.1392994E-2,2.466E3,-2.4998721E-1,4.5525387E-2],"split_indices":[66,77,0,203,0,0,206,0,0,0,122,0,0],"split_type":[0,0,0,0,0,0,0,0,0,0,0,0,0],"sum_hessian":[1.1527032E1,8.494469E0,3.032563E0,7.217644E0,1.2768251E0,1.0462719E0,6.171372E0,2.6512134E0,3.5201588E0,1.3031855E0,2.2169733E0,1.1391103E0,1.077863E0],"tree_param":{"num_deleted":"0","num_feature":"257","num_nodes":"13","size_leaf_vector":"1"}},{"base_weights":[1.5696028E-1,2.0443244E-1,-1.037007E-1,-2.0327473E-1,7.5432494E-2,-2.4686338E-1,4.3523076E-1,3.1571385E-2,-1.245434E-1,1.5803882E-1,3.8751632E-2],"categories":[],"categories_nodes":[],"categories_segments":[],"categories_sizes":[],"default_left":[0,0,0,0,0,0,0,0,0,0,0],"id":28,"left_children":[1,-1,3,-1,5,7,9,-1,-1,-1,-1],"loss_changes":[1.5945446E0,0E0,9.057989E-1,0E0,9.4654065E-1,3.0765724E-1,3.7912667E-2,0E0,0E0,0E0,0E0],"parents":[2147483647,0,0,2,2,4,4,5,5,6,6],"right_children":[2,-1,4,-1,6,8,10,-1,-1,-1,-1],"split_conditions":[4.99E2,2.0443244E-1,8.1E2,-2.0327473E-1,4E0,6.22E2,3.64E-1,3.1571385E-2,-1.245434E-1,1.5803882E-1,3.8751632E-2],"split_indices":[2,0,2,0,255,91,126,0,0,0,0],"split_type":[0,0,0,0,0,0,0,0,0,0,0],"sum_hessian":[1.0146655E1,2.8326805E0,7.3139753E0,1.0779687E0,6.2360063E0,3.4550056E0,2.7810006E0,1.2384274E0,2.2165782E0,1.5854478E0,1.195553E0],"tree_param":{"num_deleted":"0","num_feature":"257","num_nodes":"11","size_leaf_vector":"1"}},{"base_weights":[1.3403574E-1,-8.0178946E-2,2.0226264E-1,-1.4900282E-1,5.73824E-2,1.432508E-1,-1.6617315E-1,-3.6140785E-1,8.9270145E-2,-2.3495438E-2,-1.393721E-1,8.396711E-2,-3.888145E-2],"categories":[],"categories_nodes":[],"categories_segments":[],"categories_sizes":[],"default_left":[0,0,0,0,0,0,0,0,0,0,0,0,0],"id":29,"left_children":[1,3,-1,-1,5,-1,7,9,11,-1,-1,-1,-1],"loss_changes":[1.2609091E0,5.075816E-1,0E0,0E0,7.5390005E-1,0E0,3.0304313E-1,5.927846E-2,1.6786723E-1,0E0,0E0,0E0,0E0],"parents":[2147483647,0,0,1,1,4,4,6,6,7,7,8,8],"right_children":[2,4,-1,-1,6,-1,8,10,12,-1,-1,-1,-1],"split_conditions":[7.2E-2,9.3E1,2.0226264E-1,-1.4900282E-1,1.3E1,1.432508E-1,2E1,5E0,4.39E2,-2.3495438E-2,-1.393721E-1,8.396711E-2,-3.888145E-2],"split_indices":[66,120,0,0,75,0,197,72,120,0,0,0,0],"split_type":[0,0,0,0,0,0,0,0,0,0,0,0,0],"sum_hessian":[9.4297E0,7.3618164E0,2.0678837E0,1.1796349E0,6.182182E0,1.7526121E0,4.4295697E0,2.2755477E0,2.1540217E0,1.0776352E0,1.1979126E0,1.0023221E0,1.1516998E0],"tree_param":{"num_deleted":"0","num_feature":"257","num_nodes":"13","size_leaf_vector":"1"}},{"base_weights":[1.1285855E-1,-7.130492E-2,1.8847434E-1,-2.941429E-1,1.4601073E-1,1.0485688E-1,-2.2826086E-1,-1.125117E-1,1.215686E-1,-3.0987713E-2,8.376147E-2,4.099007E-2,-9.305242E-2],"categories":[],"categories_nodes":[],"categories_segments":[],"categories_sizes":[],"default_left":[0,0,0,0,0,0,0,0,0,0,0,0,0],"id":30,"left_children":[1,3,-1,5,7,9,-1,11,-1,-1,-1,-1,-1],"loss_changes":[9.7756153E-1,4.3705136E-1,0E0,8.898166E-1,3.6648384E-1,1.4583707E-1,0E0,1.9899116E-1,0E0,0E0,0E0,0E0,0E0],"parents":[2147483647,0,0,1,1,3,3,4,4,5,5,7,7],"right_children":[2,4,-1,6,8,10,-1,12,-1,-1,-1,-1,-1],"split_conditions":[7.2E-2,2.463E3,1.8847434E-1,2.142E3,4E0,1.5E1,-2.2826086E-1,3.147E3,1.215686E-1,-3.0987713E-2,8.376147E-2,4.099007E-2,-9.305242E-2],"split_indices":[66,123,0,123,255,28,0,123,0,0,0,0,0],"split_type":[0,0,0,0,0,0,0,0,0,0,0,0,0],"sum_hessian":[8.827276E0,7.138229E0,1.689047E0,3.3497884E0,3.7884405E0,2.2239187E0,1.1258696E0,2.1801236E0,1.6083169E0,1.1994632E0,1.0244554E0,1.1010522E0,1.0790714E0],"tree_param":{"num_deleted":"0","num_feature":"257","num_nodes":"13","size_leaf_vector":"1"}},{"base_weights":[9.575923E-2,1.6960408E-1,-9.1573834E-2,-3.2517946E-1,1.290426E-1,8.738205E-3,-2.0568766E-1,-6.2066052E-2,3.508133E-1,1.5298346E-1,1.1362873E-2],"categories":[],"categories_nodes":[],"categories_segments":[],"categories_sizes":[],"default_left":[0,0,0,0,0,0,0,0,0,0,0],"id":31,"left_children":[1,-1,3,5,7,-1,-1,-1,9,-1,-1],"loss_changes":[8.765272E-1,0E0,4.3171263E-1,5.253407E-1,4.1566935E-1,0E0,0E0,0E0,1.3729781E-1,0E0,0E0],"parents":[2147483647,0,0,2,2,3,3,4,4,8,8],"right_children":[2,-1,4,6,8,-1,-1,-1,10,-1,-1],"split_conditions":[1.199E3,1.6960408E-1,3.348E3,2.122E3,1.3E1,8.738205E-3,-2.0568766E-1,-6.2066052E-2,4E0,1.5298346E-1,1.1362873E-2],"split_indices":[217,0,116,123,203,0,0,0,248,0,0],"split_type":[0,0,0,0,0,0,0,0,0,0,0],"sum_hessian":[8.3755E0,1.8129953E0,6.562505E0,2.9572175E0,3.6052873E0,1.954852E0,1.0023655E0,1.4603385E0,2.1449487E0,1.0045705E0,1.1403784E0],"tree_param":{"num_deleted":"0","num_feature":"257","num_nodes":"11","size_leaf_vector":"1"}},{"base_weights":[8.23044E-2,1.572146E-1,-8.252452E-2,-1.5768698E-1,7.797497E-2,-1.6702245E-1,3.565614E-1,-1.1995736E-1,4.61637E-2,2.4042089E-2,1.3976109E-1,-2.2216741E-2,4.305617E-2],"categories":[],"categories_nodes":[],"categories_segments":[],"categories_sizes":[],"default_left":[0,0,0,0,0,0,0,0,0,0,0,0,0],"id":32,"left_children":[1,-1,3,-1,5,7,9,-1,11,-1,-1,-1,-1],"loss_changes":[6.992502E-1,0E0,5.6904733E-1,0E0,4.910253E-1,2.1922198E-1,6.1682075E-2,0E0,4.5833472E-2,0E0,0E0,0E0,0E0],"parents":[2147483647,0,0,2,2,4,4,5,5,6,6,8,8],"right_children":[2,-1,4,-1,6,8,10,-1,12,-1,-1,-1,-1],"split_conditions":[4.99E2,1.572146E-1,8.1E2,-1.5768698E-1,4E0,1.01E2,6E1,-1.1995736E-1,2.66E2,2.4042089E-2,1.3976109E-1,-2.2216741E-2,4.305617E-2],"split_indices":[2,0,2,0,255,107,34,0,22,0,0,0,0],"split_type":[0,0,0,0,0,0,0,0,0,0,0,0,0],"sum_hessian":[8.0095215E0,1.5842791E0,6.4252424E0,1.1035889E0,5.3216534E0,3.044602E0,2.2770514E0,1.0367107E0,2.0078912E0,1.1364198E0,1.1406318E0,1.0055461E0,1.0023452E0],"tree_param":{"num_deleted":"0","num_feature":"257","num_nodes":"13","size_leaf_vector":"1"}},{"base_weights":[7.026877E-2,1.6065732E-1,-7.250302E-2,5.9233554E-2,-1.3846335E-1,-1.0757468E-1,1.2784518E-1,-9.7386785E-2,1.1723335E-1,6.86935E-2,-1.3505921E-2],"categories":[],"categories_nodes":[],"categories_segments":[],"categories_sizes":[],"default_left":[0,0,0,0,0,0,0,0,0,0,0],"id":33,"left_children":[1,-1,3,5,-1,7,-1,-1,9,-1,-1],"loss_changes":[6.1411256E-1,0E0,4.1211957E-1,4.4335926E-1,0E0,2.9488087E-1,0E0,0E0,7.050649E-2,0E0,0E0],"parents":[2147483647,0,0,2,2,3,3,5,5,8,8],"right_children":[2,-1,4,6,-1,8,-1,-1,10,-1,-1],"split_conditions":[3.89E2,1.6065732E-1,7E0,1.5E-2,-1.3846335E-1,1.749E3,1.2784518E-1,-9.7386785E-2,2.25E3,6.86935E-2,-1.3505921E-2],"split_indices":[77,0,76,68,0,117,0,0,119,0,0],"split_type":[0,0,0,0,0,0,0,0,0,0,0],"sum_hessian":[7.6606274E0,1.1528577E0,6.50777E0,5.494856E0,1.0129141E0,4.263427E0,1.2314291E0,1.9432532E0,2.3201737E0,1.13041E0,1.1897638E0],"tree_param":{"num_deleted":"0","num_feature":"257","num_nodes":"11","size_leaf_vector":"1"}},{"base_weights":[6.660248E-2,-6.334561E-2,1.5129003E-1,-2.5730708E-1,1.4687638E-1,1.7326737E-2,-1.690021E-1,-5.9548378E-2,9.622292E-2],"categories":[],"categories_nodes":[],"categories_segments":[],"categories_sizes":[],"default_left":[0,0,0,0,0,0,0,0,0],"id":34,"left_children":[1,3,-1,5,7,-1,-1,-1,-1],"loss_changes":[5.053474E-1,3.3570075E-1,0E0,4.3397334E-1,3.1243017E-1,0E0,0E0,0E0,0E0],"parents":[2147483647,0,0,1,1,3,3,4,4],"right_children":[2,4,-1,6,8,-1,-1,-1,-1],"split_conditions":[7.2E-2,1.65E2,1.5129003E-1,1E0,1E0,1.7326737E-2,-1.690021E-1,-5.9548378E-2,9.622292E-2],"split_indices":[66,45,0,128,131,0,0,0,0],"split_type":[0,0,0,0,0,0,0,0,0],"sum_hessian":[7.323122E0,6.3061604E0,1.0169616E0,3.163436E0,3.1427245E0,1.9584634E0,1.2049726E0,1.0049101E0,2.1378143E0],"tree_param":{"num_deleted":"0","num_feature":"257","num_nodes":"9","size_leaf_vector":"1"}},{"base_weights":[5.4337576E-2,2.9781598E-1,-1.5620828E-1,1.6572349E-1,-3.491524E-2,-1.2158124E-1,4.853934E-2,-9.462464E-2,1.1299347E-1],"categories":[],"categories_nodes":[],"categories_segments":[],"categories_sizes":[],"default_left":[0,0,0,0,0,0,0,0,0],"id":35,"left_children":[1,3,5,-1,-1,-1,7,-1,-1],"loss_changes":[4.6159747E-1,4.9653202E-1,2.7454793E-1,0E0,0E0,0E0,5.5300766E-1,0E0,0E0],"parents":[2147483647,0,0,1,1,2,2,6,6],"right_children":[2,4,6,-1,-1,-1,8,-1,-1],"split_conditions":[1.202E3,1.2E1,1.4E1,1.6572349E-1,-3.491524E-2,-1.2158124E-1,5.9E1,-9.462464E-2,1.1299347E-1],"split_indices":[217,184,28,0,0,0,121,0,0],"split_type":[0,0,0,0,0,0,0,0,0],"sum_hessian":[7.0969367E0,3.0988662E0,3.9980702E0,1.7125394E0,1.3863268E0,1.361962E0,2.6361082E0,1.2681146E0,1.3679936E0],"tree_param":{"num_deleted":"0","num_feature":"257","num_nodes":"9","size_leaf_vector":"1"}},{"base_weights":[4.5959372E-2,1.563014E-1,-1.0229058E-1,-3.699071E-2,1.5379137E-1,-7.658391E-2,1.6637197E-1,8.058075E-2,-9.135682E-3],"categories":[],"categories_nodes":[],"categories_segments":[],"categories_sizes":[],"default_left":[0,0,0,0,0,0,0,0,0],"id":36,"left_children":[1,3,-1,5,-1,-1,7,-1,-1],"loss_changes":[3.8270935E-1,4.796998E-1,0E0,2.763942E-1,0E0,0E0,7.525335E-2,0E0,0E0],"parents":[2147483647,0,0,1,1,3,3,6,6],"right_children":[2,4,-1,6,-1,-1,8,-1,-1],"split_conditions":[7E0,1.4E1,-1.0229058E-1,9.06E2,1.5379137E-1,-7.658391E-2,2.163E3,8.058075E-2,-9.135682E-3],"split_indices":[76,63,0,16,0,0,119,0,0],"split_type":[0,0,0,0,0,0,0,0,0],"sum_hessian":[6.7156587E0,5.689269E0,1.0263897E0,4.2695007E0,1.419768E0,1.9360533E0,2.3334477E0,1.295752E0,1.0376956E0],"tree_param":{"num_deleted":"0","num_feature":"257","num_nodes":"9","size_leaf_vector":"1"}},{"base_weights":[4.128529E-2,-1.5464117E-1,2.127912E-1,3.937964E-2,-1.428627E-1,-3.4411706E-2,3.4300357E-1,1.3761958E-1,2.1272909E-2],"categories":[],"categories_nodes":[],"categories_segments":[],"categories_sizes":[],"default_left":[0,0,0,0,0,0,0,0,0],"id":37,"left_children":[1,3,5,-1,-1,-1,7,-1,-1],"loss_changes":[2.849766E-1,4.376741E-1,2.2787073E-1,0E0,0E0,0E0,7.49695E-2,0E0,0E0],"parents":[2147483647,0,0,1,1,2,2,6,6],"right_children":[2,4,6,-1,-1,-1,8,-1,-1],"split_conditions":[2.448E3,2.142E3,1.01E2,3.937964E-2,-1.428627E-1,-3.4411706E-2,5E0,1.3761958E-1,2.1272909E-2],"split_indices":[123,123,107,0,0,0,72,0,0],"split_type":[0,0,0,0,0,0,0,0,0],"sum_hessian":[6.5015244E0,3.0806067E0,3.4209177E0,1.9439933E0,1.1366134E0,1.0070858E0,2.413832E0,1.2122846E0,1.2015475E0],"tree_param":{"num_deleted":"0","num_feature":"257","num_nodes":"9","size_leaf_vector":"1"}},{"base_weights":[3.3623505E-2,1.2999374E-1,-8.65309E-2,-7.6170206E-2,2.6105177E-1,-5.6850705E-2,4.3888E-1,7.1761226E-3,1.7003287E-1],"categories":[],"categories_nodes":[],"categories_segments":[],"categories_sizes":[],"default_left":[0,0,0,0,0,0,0,0,0],"id":38,"left_children":[1,3,-1,-1,5,-1,7,-1,-1],"loss_changes":[2.6662278E-1,3.868456E-1,0E0,0E0,5.032409E-1,0E0,2.0195657E-1,0E0,0E0],"parents":[2147483647,0,0,1,1,4,4,6,6],"right_children":[2,4,-1,-1,6,-1,8,-1,-1],"split_conditions":[7E0,7E0,-8.65309E-2,-7.6170206E-2,1E0,-5.6850705E-2,2.339E3,7.1761226E-3,1.7003287E-1],"split_indices":[76,203,0,0,131,0,1,0,0],"split_type":[0,0,0,0,0,0,0,0,0],"sum_hessian":[6.3824143E0,5.3714724E0,1.0109423E0,1.1285158E0,4.242956E0,1.1821516E0,3.0608048E0,1.0007852E0,2.0600195E0],"tree_param":{"num_deleted":"0","num_feature":"257","num_nodes":"9","size_leaf_vector":"1"}},{"base_weights":[2.1435115E-2,2.4028084E-1,-1.5067062E-1,1.3868885E-1,-2.6478156E-2,-3.223742E-1,3.3432E-2,-1.4140476E-1,-4.290263E-3],"categories":[],"categories_nodes":[],"categories_segments":[],"categories_sizes":[],"default_left":[0,0,0,0,0,0,0,0,0],"id":39,"left_children":[1,3,5,-1,-1,7,-1,-1,-1],"loss_changes":[3.026009E-1,2.960269E-1,2.4177292E-1,0E0,0E0,1.3188142E-1,0E0,0E0,0E0],"parents":[2147483647,0,0,1,1,2,2,5,5],"right_children":[2,4,6,-1,-1,8,-1,-1,-1],"split_conditions":[1.202E3,1.2E1,4.5204E4,1.3868885E-1,-2.6478156E-2,1.44E2,3.3432E-2,-1.4140476E-1,-4.290263E-3],"split_indices":[217,184,0,0,0,121,0,0,0],"split_type":[0,0,0,0,0,0,0,0,0],"sum_hessian":[6.0728903E0,2.4990423E0,3.5738482E0,1.2483437E0,1.2506986E0,2.020404E0,1.5534441E0,1.004613E0,1.0157912E0],"tree_param":{"num_deleted":"0","num_feature":"257","num_nodes":"9","size_leaf_vector":"1"}},{"base_weights":[1.687411E-2,1.7758657E-1,-1.6633248E-1,1.18740976E-1,-2.3778439E-2,-1.0214966E-1,4.3244623E-2],"categories":[],"categories_nodes":[],"categories_segments":[],"categories_sizes":[],"default_left":[0,0,0,0,0,0,0],"id":40,"left_children":[1,3,5,-1,-1,-1,-1],"loss_changes":[2.3366433E-1,2.654726E-1,2.521913E-1,0E0,0E0,0E0,0E0],"parents":[2147483647,0,0,1,1,2,2],"right_children":[2,4,6,-1,-1,-1,-1],"split_conditions":[2.49E4,5E0,2E2,1.18740976E-1,-2.3778439E-2,-1.0214966E-1,4.3244623E-2],"split_indices":[48,72,45,0,0,0,0],"split_type":[0,0,0,0,0,0,0],"sum_hessian":[5.932781E0,3.1767495E0,2.756032E0,1.4250411E0,1.7517085E0,1.703668E0,1.0523639E0],"tree_param":{"num_deleted":"0","num_feature":"257","num_nodes":"7","size_leaf_vector":"1"}},{"base_weights":[1.8192785E-2,1.9502471E-1,-1.1627744E-1,-2.8497774E-2,1.2338682E-1,-9.751556E-2,9.124619E-2,-4.901168E-2,8.955988E-2],"categories":[],"categories_nodes":[],"categories_segments":[],"categories_sizes":[],"default_left":[0,0,0,0,0,0,0,0,0],"id":41,"left_children":[1,3,5,-1,-1,-1,7,-1,-1],"loss_changes":[1.8493667E-1,2.4737142E-1,2.2473966E-1,0E0,0E0,0E0,2.0916234E-1,0E0,0E0],"parents":[2147483647,0,0,1,1,2,2,6,6],"right_children":[2,4,6,-1,-1,-1,8,-1,-1],"split_conditions":[1.202E3,7.1E1,1.3E1,-2.8497774E-2,1.2338682E-1,-9.751556E-2,1.28E2,-4.901168E-2,8.955988E-2],"split_indices":[217,99,42,0,0,0,120,0,0],"split_type":[0,0,0,0,0,0,0,0,0],"sum_hessian":[5.823761E0,2.3211145E0,3.5026467E0,1.2310278E0,1.0900868E0,1.4637438E0,2.0389028E0,1.0100601E0,1.0288427E0],"tree_param":{"num_deleted":"0","num_feature":"257","num_nodes":"9","size_leaf_vector":"1"}},{"base_weights":[1.9723596E-2,-1.4474677E-1,1.7820904E-1,2.743038E-2,-1.07938804E-1,-1.1259637E-2,8.703712E-2],"categories":[],"categories_nodes":[],"categories_segments":[],"categories_sizes":[],"default_left":[0,0,0,0,0,0,0],"id":42,"left_children":[1,3,5,-1,-1,-1,-1],"loss_changes":[1.9804102E-1,2.256274E-1,1.0296284E-1,0E0,0E0,0E0,0E0],"parents":[2147483647,0,0,1,1,2,2],"right_children":[2,4,6,-1,-1,-1,-1],"split_conditions":[2.576E3,2.142E3,1.3E1,2.743038E-2,-1.07938804E-1,-1.1259637E-2,8.703712E-2],"split_indices":[123,123,203,0,0,0,0],"split_type":[0,0,0,0,0,0,0],"sum_hessian":[5.6080265E0,2.7945905E0,2.813436E0,1.6058068E0,1.1887836E0,1.1879761E0,1.6254599E0],"tree_param":{"num_deleted":"0","num_feature":"257","num_nodes":"7","size_leaf_vector":"1"}},{"base_weights":[1.3476453E-2,-1.1700411E-1,1.7626446E-1,2.7266573E-2,-9.07927E-2,-1.945792E-3,8.3152846E-2],"categories":[],"categories_nodes":[],"categories_segments":[],"categories_sizes":[],"default_left":[0,0,0,0,0,0,0],"id":43,"left_children":[1,3,5,-1,-1,-1,-1],"loss_changes":[1.597877E-1,1.910555E-1,6.291282E-2,0E0,0E0,0E0,0E0],"parents":[2147483647,0,0,1,1,2,2],"right_children":[2,4,6,-1,-1,-1,-1],"split_conditions":[2.51E3,2.49E4,2.5E1,2.7266573E-2,-9.07927E-2,-1.945792E-3,8.3152846E-2],"split_indices":[117,48,23,0,0,0,0],"split_type":[0,0,0,0,0,0,0],"sum_hessian":[5.5517716E0,3.2378025E0,2.313969E0,1.7681191E0,1.4696835E0,1.1560663E0,1.1579026E0],"tree_param":{"num_deleted":"0","num_feature":"257","num_nodes":"7","size_leaf_vector":"1"}},{"base_weights":[1.2552087E-2,-5.9477586E-2,1.081655E-1,9.9990584E-2,-3.0269643E-2,-7.235494E-2,3.8478877E-2],"categories":[],"categories_nodes":[],"categories_segments":[],"categories_sizes":[],"default_left":[0,0,0,0,0,0,0],"id":44,"left_children":[1,-1,3,-1,5,-1,-1],"loss_changes":[1.525737E-1,0E0,1.6974595E-1,0E0,1.6765334E-1,0E0,0E0],"parents":[2147483647,0,0,2,2,4,4],"right_children":[2,-1,4,-1,6,-1,-1],"split_conditions":[1E0,-5.9477586E-2,1.202E3,9.9990584E-2,1.069E3,-7.235494E-2,3.8478877E-2],"split_indices":[131,0,217,0,2,0,0],"split_type":[0,0,0,0,0,0,0],"sum_hessian":[5.505597E0,1.3829321E0,4.122665E0,1.0337853E0,3.0888798E0,1.1017507E0,1.987129E0],"tree_param":{"num_deleted":"0","num_feature":"257","num_nodes":"7","size_leaf_vector":"1"}},{"base_weights":[1.0487978E-2,-6.605692E-2,9.802548E-2,-5.6562368E-2,2.2268845E-1,-3.1689387E-2,3.6194575E-1,2.769743E-2,1.3397689E-1],"categories":[],"categories_nodes":[],"categories_segments":[],"categories_sizes":[],"default_left":[0,0,0,0,0,0,0,0,0],"id":45,"left_children":[1,-1,3,-1,5,-1,7,-1,-1],"loss_changes":[1.5099733E-1,0E0,2.3267421E-1,0E0,2.292608E-1,0E0,3.0878216E-2,0E0,0E0],"parents":[2147483647,0,0,2,2,4,4,6,6],"right_children":[2,-1,4,-1,6,-1,8,-1,-1],"split_conditions":[7E0,-6.605692E-2,1E0,-5.6562368E-2,9.7E1,-3.1689387E-2,4.9E1,2.769743E-2,1.3397689E-1],"split_indices":[203,0,131,0,120,0,35,0,0],"split_type":[0,0,0,0,0,0,0,0,0],"sum_hessian":[5.4088273E0,1.0710455E0,4.337782E0,1.1596501E0,3.1781318E0,1.0184505E0,2.1596813E0,1.0155464E0,1.1441348E0],"tree_param":{"num_deleted":"0","num_feature":"257","num_nodes":"9","size_leaf_vector":"1"}},{"base_weights":[9.749798E-3,-1.3073047E-1,1.5170835E-1,3.4805037E-2,-9.310928E-2,8.8191226E-2,-3.0679667E-2],"categories":[],"categories_nodes":[],"categories_segments":[],"categories_sizes":[],"default_left":[0,0,0,0,0,0,0],"id":46,"left_children":[1,3,5,-1,-1,-1,-1],"loss_changes":[1.4442116E-1,1.9899589E-1,1.5905845E-1,0E0,0E0,0E0,0E0],"parents":[2147483647,0,0,1,1,2,2],"right_children":[2,4,6,-1,-1,-1,-1],"split_conditions":[4.7751E4,3.4637E4,4.44E2,3.4805037E-2,-9.310928E-2,8.8191226E-2,-3.0679667E-2],"split_indices":[0,0,120,0,0,0,0],"split_type":[0,0,0,0,0,0,0],"sum_hessian":[5.247413E0,2.6771932E0,2.5702202E0,1.2771002E0,1.400093E0,1.5464814E0,1.0237389E0],"tree_param":{"num_deleted":"0","num_feature":"257","num_nodes":"7","size_leaf_vector":"1"}},{"base_weights":[7.018741E-3,1.3396147E-1,-1.257894E-1,-2.134172E-2,8.200916E-2,1.1159647E-2,-7.514383E-2],"categories":[],"categories_nodes":[],"categories_segments":[],"categories_sizes":[],"default_left":[0,0,0,0,0,0,0],"id":47,"left_children":[1,3,5,-1,-1,-1,-1],"loss_changes":[1.21073715E-1,1.2366503E-1,8.119881E-2,0E0,0E0,0E0,0E0],"parents":[2147483647,0,0,1,1,2,2],"right_children":[2,4,6,-1,-1,-1,-1],"split_conditions":[2.76E-1,4E0,2.326E3,-2.134172E-2,8.200916E-2,1.1159647E-2,-7.514383E-2],"split_indices":[126,255,119,0,0,0,0],"split_type":[0,0,0,0,0,0,0],"sum_hessian":[5.182016E0,2.645075E0,2.5369406E0,1.2684743E0,1.3766007E0,1.4037292E0,1.1332115E0],"tree_param":{"num_deleted":"0","num_feature":"257","num_nodes":"7","size_leaf_vector":"1"}},{"base_weights":[4.781182E-3,-5.156704E-2,1.058755E-1,8.1917025E-2,-2.7752114E-2],"categories":[],"categories_nodes":[],"categories_segments":[],"categories_sizes":[],"default_left":[0,0,0,0,0],"id":48,"left_children":[1,-1,3,-1,-1],"loss_changes":[1.2730439E-1,0E0,1.7464787E-1,0E0,0E0],"parents":[2147483647,0,0,2,2],"right_children":[2,-1,4,-1,-1],"split_conditions":[6.87E2,-5.156704E-2,2.25E3,8.1917025E-2,-2.7752114E-2],"split_indices":[16,0,119,0,0],"split_type":[0,0,0,0,0],"sum_hessian":[5.108767E0,1.6044878E0,3.5042794E0,1.6974155E0,1.8068638E0],"tree_param":{"num_deleted":"0","num_feature":"257","num_nodes":"5","size_leaf_vector":"1"}},{"base_weights":[4.0481538E-3,4.4493787E-2,-9.7321086E-2,-9.346594E-2,3.4885824E-2],"categories":[],"categories_nodes":[],"categories_segments":[],"categories_sizes":[],"default_left":[0,0,0,0,0],"id":49,"left_children":[1,-1,3,-1,-1],"loss_changes":[1.0300105E-1,0E0,2.266315E-1,0E0,0E0],"parents":[2147483647,0,0,2,2],"right_children":[2,-1,4,-1,-1],"split_conditions":[1.202E3,4.4493787E-2,1.3E1,-9.346594E-2,3.4885824E-2],"split_indices":[217,0,42,0,0],"split_type":[0,0,0,0,0],"sum_hessian":[5.056294E0,1.8955432E0,3.1607509E0,1.3491355E0,1.8116153E0],"tree_param":{"num_deleted":"0","num_feature":"257","num_nodes":"5","size_leaf_vector":"1"}},{"base_weights":[1.2461608E-4,-9.606041E-2,4.8115466E-2,2.7300233E-2,-7.371556E-2],"categories":[],"categories_nodes":[],"categories_segments":[],"categories_sizes":[],"default_left":[0,0,0,0,0],"id":50,"left_children":[1,3,-1,-1,-1],"loss_changes":[1.07048154E-1,1.4387897E-1,0E0,0E0,0E0],"parents":[2147483647,0,0,1,1],"right_children":[2,4,-1,-1,-1],"split_conditions":[4.016E3,4.1507E4,4.8115466E-2,2.7300233E-2,-7.371556E-2],"split_indices":[116,0,0,0,0],"split_type":[0,0,0,0,0],"sum_hessian":[4.945097E0,3.3406827E0,1.604414E0,1.6590009E0,1.6816819E0],"tree_param":{"num_deleted":"0","num_feature":"257","num_nodes":"5","size_leaf_vector":"1"}},{"base_weights":[4.102266E-4,-5.303717E-2,8.4472686E-2,-5.7658378E-2,8.351147E-2,-7.157975E-2,4.241881E-2],"categories":[],"categories_nodes":[],"categories_segments":[],"categories_sizes":[],"default_left":[0,0,0,0,0,0,0],"id":51,"left_children":[1,-1,3,5,-1,-1,-1],"loss_changes":[1.031111E-1,0E0,1.4534606E-1,1.6107856E-1,0E0,0E0,0E0],"parents":[2147483647,0,0,2,2,3,3],"right_children":[2,-1,4,6,-1,-1,-1],"split_conditions":[1E0,-5.303717E-2,2.782E3,5.9E1,8.351147E-2,-7.157975E-2,4.241881E-2],"split_indices":[131,0,119,121,0,0,0],"split_type":[0,0,0,0,0,0,0],"sum_hessian":[4.9195433E0,1.2279599E0,3.6915834E0,2.535591E0,1.1559926E0,1.2241623E0,1.3114285E0],"tree_param":{"num_deleted":"0","num_feature":"257","num_nodes":"7","size_leaf_vector":"1"}},{"base_weights":[7.743275E-4,-1.3338892E-1,1.2554102E-1,2.3280703E-2,-8.4797546E-2,-2.7681323E-2,8.0785E-2],"categories":[],"categories_nodes":[],"categories_segments":[],"categories_sizes":[],"default_left":[0,0,0,0,0,0,0],"id":52,"left_children":[1,3,5,-1,-1,-1,-1],"loss_changes":[1.14519134E-1,1.2584713E-1,1.3573186E-1,0E0,0E0,0E0,0E0],"parents":[2147483647,0,0,1,1,2,2],"right_children":[2,4,6,-1,-1,-1,-1],"split_conditions":[3.348E3,3.4637E4,1.3E1,2.3280703E-2,-8.4797546E-2,-2.7681323E-2,8.0785E-2],"split_indices":[116,0,203,0,0,0,0],"split_type":[0,0,0,0,0,0,0],"sum_hessian":[4.841015E0,2.299368E0,2.5416472E0,1.1516458E0,1.1477221E0,1.1528376E0,1.3888096E0],"tree_param":{"num_deleted":"0","num_feature":"257","num_nodes":"7","size_leaf_vector":"1"}},{"base_weights":[-6.7825255E-4,4.5334306E-2,-1.0194564E-1,-8.558196E-2,3.425251E-2],"categories":[],"categories_nodes":[],"categories_segments":[],"categories_sizes":[],"default_left":[0,0,0,0,0],"id":53,"left_children":[1,-1,3,-1,-1],"loss_changes":[1.0425716E-1,0E0,1.9360211E-1,0E0,0E0],"parents":[2147483647,0,0,2,2],"right_children":[2,-1,4,-1,-1],"split_conditions":[1.3E1,4.5334306E-2,2E1,-8.558196E-2,3.425251E-2],"split_indices":[75,0,197,0,0],"split_type":[0,0,0,0,0],"sum_hessian":[4.7802362E0,1.7159374E0,3.0642989E0,1.4848127E0,1.5794863E0],"tree_param":{"num_deleted":"0","num_feature":"257","num_nodes":"5","size_leaf_vector":"1"}},{"base_weights":[-1.7894413E-3,4.2812824E-2,-1.0212434E-1,-9.710288E-2,2.5813878E-2],"categories":[],"categories_nodes":[],"categories_segments":[],"categories_sizes":[],"default_left":[0,0,0,0,0],"id":54,"left_children":[1,-1,3,-1,-1],"loss_changes":[9.7000524E-2,0E0,1.92036E-1,0E0,0E0],"parents":[2147483647,0,0,2,2],"right_children":[2,-1,4,-1,-1],"split_conditions":[1.202E3,4.2812824E-2,1.7E1,-9.710288E-2,2.5813878E-2],"split_indices":[217,0,28,0,0],"split_type":[0,0,0,0,0],"sum_hessian":[4.685256E0,1.7469822E0,2.938274E0,1.0187166E0,1.9195573E0],"tree_param":{"num_deleted":"0","num_feature":"257","num_nodes":"5","size_leaf_vector":"1"}},{"base_weights":[-6.7987866E-3,-5.0024237E-2,7.891523E-2,7.01129E-2,-3.1665888E-2],"categories":[],"categories_nodes":[],"categories_segments":[],"categories_sizes":[],"default_left":[0,0,0,0,0],"id":55,"left_children":[1,-1,3,-1,-1],"loss_changes":[8.99025E-2,0E0,1.481212E-1,0E0,0E0],"parents":[2147483647,0,0,2,2],"right_children":[2,-1,4,-1,-1],"split_conditions":[5.66E2,-5.0024237E-2,2.78E-1,7.01129E-2,-3.1665888E-2],"split_indices":[16,0,126,0,0],"split_type":[0,0,0,0,0],"sum_hessian":[4.597699E0,1.2743239E0,3.3233752E0,1.6618853E0,1.6614901E0],"tree_param":{"num_deleted":"0","num_feature":"257","num_nodes":"5","size_leaf_vector":"1"}},{"base_weights":[-6.7070387E-3,1.037011E-1,-1.20853774E-1,-3.4681696E-2,8.4967755E-2,2.876951E-2,-8.921487E-2],"categories":[],"categories_nodes":[],"categories_segments":[],"categories_sizes":[],"default_left":[0,0,0,0,0,0,0],"id":56,"left_children":[1,3,5,-1,-1,-1,-1],"loss_changes":[8.255009E-2,1.6511993E-1,1.5070882E-1,0E0,0E0,0E0,0E0],"parents":[2147483647,0,0,1,1,2,2],"right_children":[2,4,6,-1,-1,-1,-1],"split_conditions":[2.49E4,2.5E1,5.756E3,-3.4681696E-2,8.4967755E-2,2.876951E-2,-8.921487E-2],"split_indices":[48,23,1,0,0,0,0],"split_type":[0,0,0,0,0,0,0],"sum_hessian":[4.555736E0,2.362309E0,2.1934268E0,1.2236044E0,1.1387047E0,1.1895671E0,1.0038596E0],"tree_param":{"num_deleted":"0","num_feature":"257","num_nodes":"7","size_leaf_vector":"1"}},{"base_weights":[-6.4621894E-3,3.8658276E-2,-1.00097805E-1,-8.745131E-2,3.0151581E-2],"categories":[],"categories_nodes":[],"categories_segments":[],"categories_sizes":[],"default_left":[0,0,0,0,0],"id":57,"left_children":[1,-1,3,-1,-1],"loss_changes":[8.226345E-2,0E0,1.7514032E-1,0E0,0E0],"parents":[2147483647,0,0,2,2],"right_children":[2,-1,4,-1,-1],"split_conditions":[1.202E3,3.8658276E-2,1.3E1,-8.745131E-2,3.0151581E-2],"split_indices":[217,0,42,0,0],"split_type":[0,0,0,0,0],"sum_hessian":[4.474265E0,1.6759584E0,2.798307E0,1.2000923E0,1.5982146E0],"tree_param":{"num_deleted":"0","num_feature":"257","num_nodes":"5","size_leaf_vector":"1"}},{"base_weights":[-8.421457E-3,4.1413724E-2,-9.327197E-2,-6.516673E-2,9.550996E-3],"categories":[],"categories_nodes":[],"categories_segments":[],"categories_sizes":[],"default_left":[0,0,0,0,0],"id":58,"left_children":[1,-1,3,-1,-1],"loss_changes":[7.984645E-2,0E0,6.908233E-2,0E0,0E0],"parents":[2147483647,0,0,2,2],"right_children":[2,-1,4,-1,-1],"split_conditions":[2.9E1,4.1413724E-2,1.63E2,-6.516673E-2,9.550996E-3],"split_indices":[121,0,121,0,0],"split_type":[0,0,0,0,0],"sum_hessian":[4.38877E0,1.3798951E0,3.0088751E0,1.1415864E0,1.8672886E0],"tree_param":{"num_deleted":"0","num_feature":"257","num_nodes":"5","size_leaf_vector":"1"}},{"base_weights":[-8.524832E-3,-4.852823E-2,7.362425E-2,-2.1415386E-2,6.388554E-2],"categories":[],"categories_nodes":[],"categories_segments":[],"categories_sizes":[],"default_left":[0,0,0,0,0],"id":59,"left_children":[1,-1,3,-1,-1],"loss_changes":[7.957592E-2,0E0,9.978643E-2,0E0,0E0],"parents":[2147483647,0,0,2,2],"right_children":[2,-1,4,-1,-1],"split_conditions":[1.01E2,-4.852823E-2,1.65E2,-2.1415386E-2,6.388554E-2],"split_indices":[107,0,45,0,0],"split_type":[0,0,0,0,0],"sum_hessian":[4.3753867E0,1.1887857E0,3.1866012E0,1.8004173E0,1.3861839E0],"tree_param":{"num_deleted":"0","num_feature":"257","num_nodes":"5","size_leaf_vector":"1"}},{"base_weights":[-7.055323E-3,-1.2078813E-1,1.0011006E-1,1.6689906E-2,-7.054958E-2,7.884705E-2,-3.919331E-2],"categories":[],"categories_nodes":[],"categories_segments":[],"categories_sizes":[],"default_left":[0,0,0,0,0,0,0],"id":60,"left_children":[1,3,5,-1,-1,-1,-1],"loss_changes":[7.714511E-2,7.447692E-2,1.5804684E-1,0E0,0E0,0E0,0E0],"parents":[2147483647,0,0,1,1,2,2],"right_children":[2,4,6,-1,-1,-1,-1],"split_conditions":[4E0,3.18E2,8.3E-2,1.6689906E-2,-7.054958E-2,7.884705E-2,-3.919331E-2],"split_indices":[255,6,69,0,0,0,0],"split_type":[0,0,0,0,0,0,0],"sum_hessian":[4.3373666E0,2.0425375E0,2.2948291E0,1.005383E0,1.0371544E0,1.2643293E0,1.0304998E0],"tree_param":{"num_deleted":"0","num_feature":"257","num_nodes":"7","size_leaf_vector":"1"}},{"base_weights":[-7.5670253E-3,3.683814E-2,-9.2453115E-2,-7.504774E-2,2.8603392E-2],"categories":[],"categories_nodes":[],"categories_segments":[],"categories_sizes":[],"default_left":[0,0,0,0,0],"id":61,"left_children":[1,-1,3,-1,-1],"loss_changes":[6.964986E-2,0E0,1.3524294E-1,0E0,0E0],"parents":[2147483647,0,0,2,2],"right_children":[2,-1,4,-1,-1],"split_conditions":[1.3E1,3.683814E-2,2E1,-7.504774E-2,2.8603392E-2],"split_indices":[75,0,197,0,0],"split_type":[0,0,0,0,0],"sum_hessian":[4.2682214E0,1.5071292E0,2.7610922E0,1.3202912E0,1.440801E0],"tree_param":{"num_deleted":"0","num_feature":"257","num_nodes":"5","size_leaf_vector":"1"}},{"base_weights":[-7.4142413E-3,3.6028743E-2,-9.643197E-2,-7.92515E-2,2.468442E-2],"categories":[],"categories_nodes":[],"categories_segments":[],"categories_sizes":[],"default_left":[0,0,0,0,0],"id":62,"left_children":[1,-1,3,-1,-1],"loss_changes":[7.0630826E-2,0E0,1.302008E-1,0E0,0E0],"parents":[2147483647,0,0,2,2],"right_children":[2,-1,4,-1,-1],"split_conditions":[1.202E3,3.6028743E-2,1.3E1,-7.92515E-2,2.468442E-2],"split_indices":[217,0,42,0,0],"split_type":[0,0,0,0,0],"sum_hessian":[4.2023206E0,1.584106E0,2.6182144E0,1.103906E0,1.5143083E0],"tree_param":{"num_deleted":"0","num_feature":"257","num_nodes":"5","size_leaf_vector":"1"}},{"base_weights":[-9.135043E-3,9.895967E-2,-1.1630043E-1,-2.6267735E-2,7.025157E-2,1.4519605E-2,-6.779136E-2],"categories":[],"categories_nodes":[],"categories_segments":[],"categories_sizes":[],"default_left":[0,0,0,0,0,0,0],"id":63,"left_children":[1,3,5,-1,-1,-1,-1],"loss_changes":[7.0997104E-2,9.860584E-2,6.581989E-2,0E0,0E0,0E0,0E0],"parents":[2147483647,0,0,1,1,2,2],"right_children":[2,4,6,-1,-1,-1,-1],"split_conditions":[2.49E4,2.4E1,1E0,-2.6267735E-2,7.025157E-2,1.4519605E-2,-6.779136E-2],"split_indices":[48,23,128,0,0,0,0],"split_type":[0,0,0,0,0,0,0],"sum_hessian":[4.135359E0,2.0968728E0,2.038486E0,1.0293567E0,1.0675161E0,1.03814E0,1.000346E0],"tree_param":{"num_deleted":"0","num_feature":"257","num_nodes":"7","size_leaf_vector":"1"}},{"base_weights":[-8.136079E-3,-1.0513645E-1,3.477553E-2,1.14947185E-2,-6.221683E-2],"categories":[],"categories_nodes":[],"categories_segments":[],"categories_sizes":[],"default_left":[0,0,0,0,0],"id":64,"left_children":[1,3,-1,-1,-1],"loss_changes":[7.3497966E-2,5.7579916E-2,0E0,0E0,0E0],"parents":[2147483647,0,0,1,1],"right_children":[2,4,-1,-1,-1],"split_conditions":[2.51E3,2.4139E4,3.477553E-2,1.14947185E-2,-6.221683E-2],"split_indices":[117,48,0,0,0],"split_type":[0,0,0,0,0],"sum_hessian":[4.0950737E0,2.3837087E0,1.7113652E0,1.2522267E0,1.1314819E0],"tree_param":{"num_deleted":"0","num_feature":"257","num_nodes":"5","size_leaf_vector":"1"}},{"base_weights":[-8.837661E-3,-8.7295346E-2,3.6538437E-2,2.3708874E-2,-6.29054E-2],"categories":[],"categories_nodes":[],"categories_segments":[],"categories_sizes":[],"default_left":[0,0,0,0,0],"id":65,"left_children":[1,3,-1,-1,-1],"loss_changes":[6.272255E-2,9.3067154E-2,0E0,0E0,0E0],"parents":[2147483647,0,0,1,1],"right_children":[2,4,-1,-1,-1],"split_conditions":[4.029E3,4.1507E4,3.6538437E-2,2.3708874E-2,-6.29054E-2],"split_indices":[116,0,0,0,0],"split_type":[0,0,0,0,0],"sum_hessian":[4.0824304E0,2.7578297E0,1.3246008E0,1.3192583E0,1.4385715E0],"tree_param":{"num_deleted":"0","num_feature":"257","num_nodes":"5","size_leaf_vector":"1"}},{"base_weights":[-6.7573125E-3,-3.7939407E-2,8.396441E-2,-2.4088794E-2,6.550358E-2],"categories":[],"categories_nodes":[],"categories_segments":[],"categories_sizes":[],"default_left":[0,0,0,0,0],"id":66,"left_children":[1,-1,3,-1,-1],"loss_changes":[6.559632E-2,0E0,9.436633E-2,0E0,0E0],"parents":[2147483647,0,0,2,2],"right_children":[2,-1,4,-1,-1],"split_conditions":[1.3E1,-3.7939407E-2,2.268E3,-2.4088794E-2,6.550358E-2],"split_indices":[203,0,122,0,0],"split_type":[0,0,0,0,0],"sum_hessian":[4.0623846E0,1.5815473E0,2.480837E0,1.2974159E0,1.1834213E0],"tree_param":{"num_deleted":"0","num_feature":"257","num_nodes":"5","size_leaf_vector":"1"}},{"base_weights":[-3.9390675E-3,-4.2014E-2,6.928303E-2,-1.7454391E-2,5.630857E-2],"categories":[],"categories_nodes":[],"categories_segments":[],"categories_sizes":[],"default_left":[0,0,0,0,0],"id":67,"left_children":[1,-1,3,-1,-1],"loss_changes":[5.9804898E-2,0E0,7.035458E-2,0E0,0E0],"parents":[2147483647,0,0,2,2],"right_children":[2,-1,4,-1,-1],"split_conditions":[1.01E2,-4.2014E-2,2.77E3,-1.7454391E-2,5.630857E-2],"split_indices":[107,0,123,0,0],"split_type":[0,0,0,0,0],"sum_hessian":[4.0272546E0,1.0894752E0,2.9377794E0,1.6597755E0,1.278004E0],"tree_param":{"num_deleted":"0","num_feature":"257","num_nodes":"5","size_leaf_vector":"1"}},{"base_weights":[-3.3452255E-3,-3.2885794E-2,9.5851526E-2,6.8127975E-2,-2.4310105E-2],"categories":[],"categories_nodes":[],"categories_segments":[],"categories_sizes":[],"default_left":[0,0,0,0,0],"id":68,"left_children":[1,-1,3,-1,-1],"loss_changes":[6.322177E-2,0E0,9.082812E-2,0E0,0E0],"parents":[2147483647,0,0,2,2],"right_children":[2,-1,4,-1,-1],"split_conditions":[4E0,-3.2885794E-2,6E0,6.8127975E-2,-2.4310105E-2],"split_indices":[255,0,255,0,0],"split_type":[0,0,0,0,0],"sum_hessian":[4.0004134E0,1.8805854E0,2.119828E0,1.0539752E0,1.0658528E0],"tree_param":{"num_deleted":"0","num_feature":"257","num_nodes":"5","size_leaf_vector":"1"}},{"base_weights":[4.8880604E-5,-3.8633734E-2,7.022315E-2,5.1775057E-2,-3.3282805E-2],"categories":[],"categories_nodes":[],"categories_segments":[],"categories_sizes":[],"default_left":[0,0,0,0,0],"id":69,"left_children":[1,-1,3,-1,-1],"loss_changes":[5.3838316E-2,0E0,9.0631545E-2,0E0,0E0],"parents":[2147483647,0,0,2,2],"right_children":[2,-1,4,-1,-1],"split_conditions":[5.66E2,-3.8633734E-2,3.635E3,5.1775057E-2,-3.3282805E-2],"split_indices":[16,0,93,0,0],"split_type":[0,0,0,0,0],"sum_hessian":[3.9549787E0,1.1001529E0,2.854826E0,1.854429E0,1.000397E0],"tree_param":{"num_deleted":"0","num_feature":"257","num_nodes":"5","size_leaf_vector":"1"}},{"base_weights":[-3.9661103E-3,3.574486E-2,-8.4598556E-2,-6.7712575E-2,2.9858336E-2],"categories":[],"categories_nodes":[],"categories_segments":[],"categories_sizes":[],"default_left":[0,0,0,0,0],"id":70,"left_children":[1,-1,3,-1,-1],"loss_changes":[5.9007745E-2,0E0,1.1503791E-1,0E0,0E0],"parents":[2147483647,0,0,2,2],"right_children":[2,-1,4,-1,-1],"split_conditions":[1.3E1,3.574486E-2,2.3E1,-6.7712575E-2,2.9858336E-2],"split_indices":[75,0,197,0,0],"split_type":[0,0,0,0,0],"sum_hessian":[3.9287093E0,1.3657274E0,2.5629818E0,1.3231307E0,1.239851E0],"tree_param":{"num_deleted":"0","num_feature":"257","num_nodes":"5","size_leaf_vector":"1"}},{"base_weights":[-3.38039E-3,3.3294458E-2,-8.400499E-2,-7.501648E-2,2.766763E-2],"categories":[],"categories_nodes":[],"categories_segments":[],"categories_sizes":[],"default_left":[0,0,0,0,0],"id":71,"left_children":[1,-1,3,-1,-1],"loss_changes":[5.4258026E-2,0E0,1.2336078E-1,0E0,0E0],"parents":[2147483647,0,0,2,2],"right_children":[2,-1,4,-1,-1],"split_conditions":[1.202E3,3.3294458E-2,1.3E1,-7.501648E-2,2.766763E-2],"split_indices":[217,0,42,0,0],"split_type":[0,0,0,0,0],"sum_hessian":[3.8734446E0,1.4459358E0,2.4275086E0,1.0341707E0,1.3933378E0],"tree_param":{"num_deleted":"0","num_feature":"257","num_nodes":"5","size_leaf_vector":"1"}},{"base_weights":[-5.5591245E-3,-8.885436E-2,2.988644E-2,1.5140559E-2,-5.327845E-2],"categories":[],"categories_nodes":[],"categories_segments":[],"categories_sizes":[],"default_left":[0,0,0,0,0],"id":72,"left_children":[1,3,-1,-1,-1],"loss_changes":[5.1027495E-2,4.871261E-2,0E0,0E0,0E0],"parents":[2147483647,0,0,1,1],"right_children":[2,4,-1,-1,-1],"split_conditions":[2.51E3,4.2427E4,2.988644E-2,1.5140559E-2,-5.327845E-2],"split_indices":[117,0,0,0,0],"split_type":[0,0,0,0,0],"sum_hessian":[3.814004E0,2.2150607E0,1.5989432E0,1.0297028E0,1.1853579E0],"tree_param":{"num_deleted":"0","num_feature":"257","num_nodes":"5","size_leaf_vector":"1"}},{"base_weights":[-5.6239148E-3,-3.0225642E-2,8.3352275E-2,5.0163094E-2,-1.23284E-2],"categories":[],"categories_nodes":[],"categories_segments":[],"categories_sizes":[],"default_left":[0,0,0,0,0],"id":73,"left_children":[1,-1,3,-1,-1],"loss_changes":[4.9043443E-2,0E0,3.8476806E-2,0E0,0E0],"parents":[2147483647,0,0,2,2],"right_children":[2,-1,4,-1,-1],"split_conditions":[3.348E3,-3.0225642E-2,4.36E2,5.0163094E-2,-1.23284E-2],"split_indices":[116,0,120,0,0],"split_type":[0,0,0,0,0],"sum_hessian":[3.8020816E0,1.7735522E0,2.0285294E0,1.0066053E0,1.021924E0],"tree_param":{"num_deleted":"0","num_feature":"257","num_nodes":"5","size_leaf_vector":"1"}},{"base_weights":[-2.2959963E-3,-3.3391323E-2,8.1160165E-2,-2.4349224E-2,6.1441433E-2],"categories":[],"categories_nodes":[],"categories_segments":[],"categories_sizes":[],"default_left":[0,0,0,0,0],"id":74,"left_children":[1,-1,3,-1,-1],"loss_changes":[5.2603506E-2,0E0,8.267217E-2,0E0,0E0],"parents":[2147483647,0,0,2,2],"right_children":[2,-1,4,-1,-1],"split_conditions":[1.3E1,-3.3391323E-2,5.7E1,-2.4349224E-2,6.1441433E-2],"split_indices":[203,0,188,0,0],"split_type":[0,0,0,0,0],"sum_hessian":[3.7892702E0,1.4984041E0,2.2908661E0,1.1390532E0,1.1518129E0],"tree_param":{"num_deleted":"0","num_feature":"257","num_nodes":"5","size_leaf_vector":"1"}},{"base_weights":[-6.964348E-4,-6.482345E-2,3.5969034E-2,2.7855808E-2,-5.5190086E-2],"categories":[],"categories_nodes":[],"categories_segments":[],"categories_sizes":[],"default_left":[0,0,0,0,0],"id":75,"left_children":[1,3,-1,-1,-1],"loss_changes":[4.4580776E-2,8.765087E-2,0E0,0E0,0E0],"parents":[2147483647,0,0,1,1],"right_children":[2,4,-1,-1,-1],"split_conditions":[2.52E2,9.7E1,3.5969034E-2,2.7855808E-2,-5.5190086E-2],"split_indices":[45,45,0,0,0],"split_type":[0,0,0,0,0],"sum_hessian":[3.7597709E0,2.7564528E0,1.003318E0,1.2813551E0,1.4750978E0],"tree_param":{"num_deleted":"0","num_feature":"257","num_nodes":"5","size_leaf_vector":"1"}},{"base_weights":[1.2890018E-3,8.112795E-2,-2.878162E-2,-1.4408057E-2,5.099028E-2],"categories":[],"categories_nodes":[],"categories_segments":[],"categories_sizes":[],"default_left":[0,0,0,0,0],"id":76,"left_children":[1,3,-1,-1,-1],"loss_changes":[4.451745E-2,4.419497E-2,0E0,0E0,0E0],"parents":[2147483647,0,0,1,1],"right_children":[2,4,-1,-1,-1],"split_conditions":[1.5E1,1.04E2,-2.878162E-2,-1.4408057E-2,5.099028E-2],"split_indices":[75,45,0,0,0],"split_type":[0,0,0,0,0],"sum_hessian":[3.732219E0,2.1402953E0,1.5919237E0,1.0594575E0,1.0808378E0],"tree_param":{"num_deleted":"0","num_feature":"257","num_nodes":"5","size_leaf_vector":"1"}},{"base_weights":[2.6336068E-3,-6.971877E-2,3.527355E-2,-6.69501E-2,2.4208408E-2],"categories":[],"categories_nodes":[],"categories_segments":[],"categories_sizes":[],"default_left":[0,0,0,0,0],"id":77,"left_children":[1,3,-1,-1,-1],"loss_changes":[4.736892E-2,9.921428E-2,0E0,0E0,0E0],"parents":[2147483647,0,0,1,1],"right_children":[2,4,-1,-1,-1],"split_conditions":[2.3E1,2.6E1,3.527355E-2,-6.69501E-2,2.4208408E-2],"split_indices":[197,23,0,0,0],"split_type":[0,0,0,0,0],"sum_hessian":[3.7100735E0,2.5183501E0,1.1917233E0,1.0071696E0,1.5111804E0],"tree_param":{"num_deleted":"0","num_feature":"257","num_nodes":"5","size_leaf_vector":"1"}},{"base_weights":[1.1745086E-4,-3.472477E-2,6.5658726E-2,5.22991E-2,-2.1747526E-2],"categories":[],"categories_nodes":[],"categories_segments":[],"categories_sizes":[],"default_left":[0,0,0,0,0],"id":78,"left_children":[1,-1,3,-1,-1],"loss_changes":[4.304625E-2,0E0,6.6974476E-2,0E0,0E0],"parents":[2147483647,0,0,2,2],"right_children":[2,-1,4,-1,-1],"split_conditions":[5.66E2,-3.472477E-2,2.78E-1,5.22991E-2,-2.1747526E-2],"split_indices":[16,0,126,0,0],"split_type":[0,0,0,0,0],"sum_hessian":[3.667642E0,1.0483223E0,2.6193197E0,1.3194946E0,1.299825E0],"tree_param":{"num_deleted":"0","num_feature":"257","num_nodes":"5","size_leaf_vector":"1"}},{"base_weights":[-7.358812E-4,7.642253E-2,-3.0359615E-2,7.735459E-2,-3.7921205E-2],"categories":[],"categories_nodes":[],"categories_segments":[],"categories_sizes":[],"default_left":[0,0,0,0,0],"id":79,"left_children":[1,3,-1,-1,-1],"loss_changes":[4.3755256E-2,1.5027648E-1,0E0,0E0,0E0],"parents":[2147483647,0,0,1,1],"right_children":[2,4,-1,-1,-1],"split_conditions":[2E0,5E0,-3.0359615E-2,7.735459E-2,-3.7921205E-2],"split_indices":[128,72,0,0,0],"split_type":[0,0,0,0,0],"sum_hessian":[3.6469908E0,2.1980891E0,1.4489018E0,1.0170621E0,1.181027E0],"tree_param":{"num_deleted":"0","num_feature":"257","num_nodes":"5","size_leaf_vector":"1"}},{"base_weights":[1.7259126E-3,-6.602743E-2,3.2053407E-2,2.700003E-2,-5.8064725E-2],"categories":[],"categories_nodes":[],"categories_segments":[],"categories_sizes":[],"default_left":[0,0,0,0,0],"id":80,"left_children":[1,3,-1,-1,-1],"loss_changes":[3.9818883E-2,8.537501E-2,0E0,0E0,0E0],"parents":[2147483647,0,0,1,1],"right_children":[2,4,-1,-1,-1],"split_conditions":[2.3E1,1.3E1,3.2053407E-2,2.700003E-2,-5.8064725E-2],"split_indices":[197,75,0,0,0],"split_type":[0,0,0,0,0],"sum_hessian":[3.600325E0,2.4153872E0,1.1849381E0,1.2186095E0,1.1967777E0],"tree_param":{"num_deleted":"0","num_feature":"257","num_nodes":"5","size_leaf_vector":"1"}},{"base_weights":[1.3363659E-3,3.1410422E-2,-7.379954E-2,-5.600854E-2,1.8314369E-2],"categories":[],"categories_nodes":[],"categories_segments":[],"categories_sizes":[],"default_left":[0,0,0,0,0],"id":81,"left_children":[1,-1,3,-1,-1],"loss_changes":[4.315265E-2,0E0,6.0538456E-2,0E0,0E0],"parents":[2147483647,0,0,2,2],"right_children":[2,-1,4,-1,-1],"split_conditions":[1.202E3,3.1410422E-2,1.612E3,-5.600854E-2,1.8314369E-2],"split_indices":[217,0,2,0,0],"split_type":[0,0,0,0,0],"sum_hessian":[3.5613945E0,1.3334557E0,2.227939E0,1.0033952E0,1.2245437E0],"tree_param":{"num_deleted":"0","num_feature":"257","num_nodes":"5","size_leaf_vector":"1"}},{"base_weights":[-4.5445855E-4,2.5911512E-2,-3.0508779E-2],"categories":[],"categories_nodes":[],"categories_segments":[],"categories_sizes":[],"default_left":[0,0,0],"id":82,"left_children":[1,-1,-1],"loss_changes":[4.87446E-2,0E0,0E0],"parents":[2147483647,0,0],"right_children":[2,-1,-1],"split_conditions":[1.5E1,2.5911512E-2,-3.0508779E-2],"split_indices":[75,0,0],"split_type":[0,0,0],"sum_hessian":[3.5459723E0,1.9879508E0,1.5580215E0],"tree_param":{"num_deleted":"0","num_feature":"257","num_nodes":"3","size_leaf_vector":"1"}},{"base_weights":[-1.3425465E-3,2.4399808E-2,-2.4985306E-2],"categories":[],"categories_nodes":[],"categories_segments":[],"categories_sizes":[],"default_left":[0,0,0],"id":83,"left_children":[1,-1,-1],"loss_changes":[3.7434496E-2,0E0,0E0],"parents":[2147483647,0,0],"right_children":[2,-1,-1],"split_conditions":[2.49E4,2.4399808E-2,-2.4985306E-2],"split_indices":[48,0,0],"split_type":[0,0,0],"sum_hessian":[3.5258682E0,1.7587796E0,1.7670885E0],"tree_param":{"num_deleted":"0","num_feature":"257","num_nodes":"3","size_leaf_vector":"1"}},{"base_weights":[-1.0419688E-3,3.1170502E-2,-6.626161E-2,1.215559E-2,-4.1109268E-2],"categories":[],"categories_nodes":[],"categories_segments":[],"categories_sizes":[],"default_left":[0,0,0,0,0],"id":84,"left_children":[1,-1,3,-1,-1],"loss_changes":[3.783679E-2,0E0,3.1242136E-2,0E0,0E0],"parents":[2147483647,0,0,2,2],"right_children":[2,-1,4,-1,-1],"split_conditions":[2.9E1,3.1170502E-2,1.4E1,1.215559E-2,-4.1109268E-2],"split_indices":[121,0,203,0,0],"split_type":[0,0,0,0,0],"sum_hessian":[3.52226E0,1.1226777E0,2.3995824E0,1.1268256E0,1.2727567E0],"tree_param":{"num_deleted":"0","num_feature":"257","num_nodes":"5","size_leaf_vector":"1"}},{"base_weights":[-2.3949411E-4,-2.6933108E-2,2.5807865E-2],"categories":[],"categories_nodes":[],"categories_segments":[],"categories_sizes":[],"default_left":[0,0,0],"id":85,"left_children":[1,-1,-1],"loss_changes":[4.2583514E-2,0E0,0E0],"parents":[2147483647,0,0],"right_children":[2,-1,-1],"split_conditions":[4E0,-2.6933108E-2,2.5807865E-2],"split_indices":[255,0,0],"split_type":[0,0,0],"sum_hessian":[3.513238E0,1.703954E0,1.8092839E0],"tree_param":{"num_deleted":"0","num_feature":"257","num_nodes":"3","size_leaf_vector":"1"}},{"base_weights":[-4.0657906E-4,-2.8134186E-2,7.2396964E-2,-2.0782636E-2,5.333891E-2],"categories":[],"categories_nodes":[],"categories_segments":[],"categories_sizes":[],"default_left":[0,0,0,0,0],"id":86,"left_children":[1,-1,3,-1,-1],"loss_changes":[3.7348393E-2,0E0,5.8460742E-2,0E0,0E0],"parents":[2147483647,0,0,2,2],"right_children":[2,-1,4,-1,-1],"split_conditions":[1.3E1,-2.8134186E-2,5.7E1,-2.0782636E-2,5.333891E-2],"split_indices":[203,0,188,0,0],"split_type":[0,0,0,0,0],"sum_hessian":[3.495313E0,1.4050878E0,2.0902252E0,1.0378861E0,1.052339E0],"tree_param":{"num_deleted":"0","num_feature":"257","num_nodes":"5","size_leaf_vector":"1"}},{"base_weights":[7.884423E-4,2.5511404E-2,-2.3093337E-2],"categories":[],"categories_nodes":[],"categories_segments":[],"categories_sizes":[],"default_left":[0,0,0],"id":87,"left_children":[1,-1,-1],"loss_changes":[3.585879E-2,0E0,0E0],"parents":[2147483647,0,0],"right_children":[2,-1,-1],"split_conditions":[1.4E1,2.5511404E-2,-2.3093337E-2],"split_indices":[198,0,0],"split_type":[0,0,0],"sum_hessian":[3.4740198E0,1.6226172E0,1.8514025E0],"tree_param":{"num_deleted":"0","num_feature":"257","num_nodes":"3","size_leaf_vector":"1"}},{"base_weights":[1.1032508E-3,2.6572159E-2,-2.2393009E-2],"categories":[],"categories_nodes":[],"categories_segments":[],"categories_sizes":[],"default_left":[0,0,0],"id":88,"left_children":[1,-1,-1],"loss_changes":[3.6230918E-2,0E0,0E0],"parents":[2147483647,0,0],"right_children":[2,-1,-1],"split_conditions":[5E0,2.6572159E-2,-2.2393009E-2],"split_indices":[72,0,0],"split_type":[0,0,0],"sum_hessian":[3.4704573E0,1.531996E0,1.9384614E0],"tree_param":{"num_deleted":"0","num_feature":"257","num_nodes":"3","size_leaf_vector":"1"}},{"base_weights":[1.7134584E-3,3.1044036E-2,-6.0047247E-2,2.1468334E-2,-5.1282037E-2],"categories":[],"categories_nodes":[],"categories_segments":[],"categories_sizes":[],"default_left":[0,0,0,0,0],"id":89,"left_children":[1,-1,3,-1,-1],"loss_changes":[3.4213822E-2,0E0,6.1929747E-2,0E0,0E0],"parents":[2147483647,0,0,2,2],"right_children":[2,-1,4,-1,-1],"split_conditions":[4.8E1,3.1044036E-2,1.5E1,2.1468334E-2,-5.1282037E-2],"split_indices":[188,0,75,0,0],"split_type":[0,0,0,0,0],"sum_hessian":[3.4549437E0,1.0497347E0,2.405209E0,1.2620649E0,1.1431441E0],"tree_param":{"num_deleted":"0","num_feature":"257","num_nodes":"5","size_leaf_vector":"1"}},{"base_weights":[1.4403174E-3,-6.898791E-2,3.2600306E-2,1.9779777E-2,-5.1951606E-2],"categories":[],"categories_nodes":[],"categories_segments":[],"categories_sizes":[],"default_left":[0,0,0,0,0],"id":90,"left_children":[1,3,-1,-1,-1],"loss_changes":[4.0908437E-2,5.7552103E-2,0E0,0E0,0E0],"parents":[2147483647,0,0,1,1],"right_children":[2,4,-1,-1,-1],"split_conditions":[2.3E1,1.3E1,3.2600306E-2,1.9779777E-2,-5.1951606E-2],"split_indices":[197,75,0,0,0],"split_type":[0,0,0,0,0],"sum_hessian":[3.4243135E0,2.2820535E0,1.1422601E0,1.1543283E0,1.1277252E0],"tree_param":{"num_deleted":"0","num_feature":"257","num_nodes":"5","size_leaf_vector":"1"}},{"base_weights":[1.0431957E-3,7.4656405E-2,-2.780253E-2,-2.0548113E-2,5.406422E-2],"categories":[],"categories_nodes":[],"categories_segments":[],"categories_sizes":[],"default_left":[0,0,0,0,0],"id":91,"left_children":[1,3,-1,-1,-1],"loss_changes":[3.723425E-2,5.7901204E-2,0E0,0E0,0E0],"parents":[2147483647,0,0,1,1],"right_children":[2,4,-1,-1,-1],"split_conditions":[2E0,4E0,-2.780253E-2,-2.0548113E-2,5.406422E-2],"split_indices":[128,255,0,0,0],"split_type":[0,0,0,0,0],"sum_hessian":[3.394243E0,2.0149496E0,1.3792934E0,1.00422E0,1.0107297E0],"tree_param":{"num_deleted":"0","num_feature":"257","num_nodes":"5","size_leaf_vector":"1"}},{"base_weights":[2.1552676E-3,-2.4235392E-2,2.6328588E-2],"categories":[],"categories_nodes":[],"categories_segments":[],"categories_sizes":[],"default_left":[0,0,0],"id":92,"left_children":[1,-1,-1],"loss_changes":[3.8128566E-2,0E0,0E0],"parents":[2147483647,0,0],"right_children":[2,-1,-1],"split_conditions":[1.65E2,-2.4235392E-2,2.6328588E-2],"split_indices":[45,0,0],"split_type":[0,0,0],"sum_hessian":[3.3715255E0,1.7410449E0,1.6304806E0],"tree_param":{"num_deleted":"0","num_feature":"257","num_nodes":"3","size_leaf_vector":"1"}},{"base_weights":[1.9985682E-3,3.0632768E-2,-6.531842E-2,-5.0121486E-2,2.3341661E-2],"categories":[],"categories_nodes":[],"categories_segments":[],"categories_sizes":[],"default_left":[0,0,0,0,0],"id":93,"left_children":[1,-1,3,-1,-1],"loss_changes":[3.6101688E-2,0E0,5.9911106E-2,0E0,0E0],"parents":[2147483647,0,0,2,2],"right_children":[2,-1,4,-1,-1],"split_conditions":[9.7E1,3.0632768E-2,2.11E2,-5.0121486E-2,2.3341661E-2],"split_indices":[45,0,45,0,0],"split_type":[0,0,0,0,0],"sum_hessian":[3.3673284E0,1.1460842E0,2.2212443E0,1.2004616E0,1.0207827E0],"tree_param":{"num_deleted":"0","num_feature":"257","num_nodes":"5","size_leaf_vector":"1"}},{"base_weights":[2.269143E-3,-6.080943E-2,2.9164001E-2,1.7265327E-2,-4.527403E-2],"categories":[],"categories_nodes":[],"categories_segments":[],"categories_sizes":[],"default_left":[0,0,0,0,0],"id":94,"left_children":[1,3,-1,-1,-1],"loss_changes":[3.1943783E-2,4.309839E-2,0E0,0E0,0E0],"parents":[2147483647,0,0,1,1],"right_children":[2,4,-1,-1,-1],"split_conditions":[2.3E1,1.3E1,2.9164001E-2,1.7265327E-2,-4.527403E-2],"split_indices":[197,75,0,0,0],"split_type":[0,0,0,0,0],"sum_hessian":[3.3467257E0,2.2268116E0,1.119914E0,1.1186439E0,1.1081678E0],"tree_param":{"num_deleted":"0","num_feature":"257","num_nodes":"5","size_leaf_vector":"1"}},{"base_weights":[1.8081758E-3,3.0254098E-2,-6.878001E-2,-4.6947047E-2,1.7092636E-2],"categories":[],"categories_nodes":[],"categories_segments":[],"categories_sizes":[],"default_left":[0,0,0,0,0],"id":95,"left_children":[1,-1,3,-1,-1],"loss_changes":[3.716157E-2,0E0,4.3316968E-2,0E0,0E0],"parents":[2147483647,0,0,2,2],"right_children":[2,-1,4,-1,-1],"split_conditions":[1.202E3,3.0254098E-2,3.35E2,-4.6947047E-2,1.7092636E-2],"split_indices":[217,0,120,0,0],"split_type":[0,0,0,0,0],"sum_hessian":[3.3234782E0,1.2046402E0,2.1188378E0,1.1042565E0,1.0145814E0],"tree_param":{"num_deleted":"0","num_feature":"257","num_nodes":"5","size_leaf_vector":"1"}},{"base_weights":[1.3591615E-3,2.8391922E-2,-6.1319165E-2,2.2706239E-2,-4.8220854E-2],"categories":[],"categories_nodes":[],"categories_segments":[],"categories_sizes":[],"default_left":[0,0,0,0,0],"id":96,"left_children":[1,-1,3,-1,-1],"loss_changes":[3.100693E-2,0E0,5.5549905E-2,0E0,0E0],"parents":[2147483647,0,0,2,2],"right_children":[2,-1,4,-1,-1],"split_conditions":[9.7E1,2.8391922E-2,5.913E3,2.2706239E-2,-4.8220854E-2],"split_indices":[45,0,1,0,0],"split_type":[0,0,0,0,0],"sum_hessian":[3.310779E0,1.1256343E0,2.1851447E0,1.0192302E0,1.1659145E0],"tree_param":{"num_deleted":"0","num_feature":"257","num_nodes":"5","size_leaf_vector":"1"}},{"base_weights":[1.595396E-3,-2.9946268E-2,6.701385E-2,4.941119E-2,-1.722327E-2],"categories":[],"categories_nodes":[],"categories_segments":[],"categories_sizes":[],"default_left":[0,0,0,0,0],"id":97,"left_children":[1,-1,3,-1,-1],"loss_changes":[3.5158727E-2,0E0,4.8434924E-2,0E0,0E0],"parents":[2147483647,0,0,2,2],"right_children":[2,-1,4,-1,-1],"split_conditions":[6.87E2,-2.9946268E-2,2.25E3,4.941119E-2,-1.722327E-2],"split_indices":[16,0,119,0,0],"split_type":[0,0,0,0,0],"sum_hessian":[3.2911081E0,1.0842873E0,2.206821E0,1.0548775E0,1.1519434E0],"tree_param":{"num_deleted":"0","num_feature":"257","num_nodes":"5","size_leaf_vector":"1"}},{"base_weights":[1.7123345E-3,2.5126852E-2,-2.0500854E-2],"categories":[],"categories_nodes":[],"categories_segments":[],"categories_sizes":[],"default_left":[0,0,0],"id":98,"left_children":[1,-1,-1],"loss_changes":[3.0288171E-2,0E0,0E0],"parents":[2147483647,0,0],"right_children":[2,-1,-1],"split_conditions":[5E0,2.5126852E-2,-2.0500854E-2],"split_indices":[72,0,0],"split_type":[0,0,0],"sum_hessian":[3.2742975E0,1.4179016E0,1.856396E0],"tree_param":{"num_deleted":"0","num_feature":"257","num_nodes":"3","size_leaf_vector":"1"}},{"base_weights":[2.3031414E-3,2.6207829E-2,-2.028448E-2],"categories":[],"categories_nodes":[],"categories_segments":[],"categories_sizes":[],"default_left":[0,0,0],"id":99,"left_children":[1,-1,-1],"loss_changes":[3.1248497E-2,0E0,0E0],"parents":[2147483647,0,0],"right_children":[2,-1,-1],"split_conditions":[1E0,2.6207829E-2,-2.028448E-2],"split_indices":[30,0,0],"split_type":[0,0,0],"sum_hessian":[3.2612767E0,1.3588108E0,1.9024659E0],"tree_param":{"num_deleted":"0","num_feature":"257","num_nodes":"3","size_leaf_vector":"1"}}]},"name":"gbtree"},"learner_model_param":{"base_score":"8.669569E-1","boost_from_average":"1","num_class":"0","num_feature":"257","num_target":"1"},"objective":{"name":"binary:logistic","reg_loss_param":{"scale_pos_weight":"1"}}},"version":[2,1,4]}